#include "ap_int.h"
#include "ap_fixed.h"
#include <math.h>

#define INPUT_ROW 150
#define HIDDEN_ROW1 64
#define HIDDEN_ROW2 16
#define OUTPUT_ROW 3

void mlp(float inputData[1][INPUT_ROW], float result[1][OUTPUT_ROW]) {
#pragma HLS INTERFACE ap_ctrl_none port=return
#pragma HLS INTERFACE s_axilite port=inputData
#pragma HLS INTERFACE s_axilite port=result

	ap_fixed<16,8> convertIn[1][INPUT_ROW];
	ap_fixed<16,8> convertOut[1][OUTPUT_ROW];

	for (ap_uint<8> i = 0; i < INPUT_ROW; i++) {
		convertIn[1][i] = (ap_fixed<16,8>)inputData[1][i];
	}


	ap_fixed<16,8> weightsHidden1[INPUT_ROW][HIDDEN_ROW1] = {{0.014791016466915607, 0.05318152531981468, 0.04601942002773285, 0.06239719316363335, 0.03268958255648613, 0.10926885902881622, 0.04100373759865761, 0.0020502752158790827, -0.04877554252743721, 0.005658887326717377, 0.005637620110064745, -0.01730676367878914, 0.037865523248910904, -0.014604998752474785, 0.09531904011964798, 0.0301287192851305, 0.09147384762763977, 0.05149400234222412, 0.0384955108165741, -0.08240096271038055, 0.010819552466273308, 0.02374209836125374, 0.07818127423524857, -0.04567234590649605, 0.021944547072052956, -0.004297240637242794, 0.02166268229484558, 0.07301191985607147, -0.02546345256268978, 0.07405497878789902, -0.006513964384794235, 0.05897650495171547, 0.026662740856409073, -0.024421609938144684, 0.08401280641555786, 0.06686161458492279, -0.0480661503970623, 0.08762513846158981, 0.05936120077967644, 0.00998273491859436, 0.07014943659305573, 0.0373707041144371, -0.04130854085087776, 0.04739650338888168, 0.03276568651199341, -0.015994368121027946, 0.019445769488811493, -0.005961239337921143, 0.02743658795952797, 0.03044884093105793, 0.03507179766893387, 0.08904475718736649, 0.027000781148672104, -0.016140377148985863, 0.006298866122961044, 0.05716712400317192, 0.019347215071320534, 0.019913412630558014, 0.007357950322329998, -0.008716722950339317, -0.028482260182499886, 0.01605771854519844, -0.04218168184161186, -0.04807749018073082},
			 {-0.037900105118751526, 0.06326833367347717, 0.11095567047595978, 0.0015356350922957063, 0.0812160074710846, 0.11268900334835052, -0.047931969165802, -0.04661697521805763, -0.034400977194309235, -0.03355184942483902, 0.05230320617556572, 0.05409472808241844, 0.04778642579913139, -0.0023062299005687237, 0.09922420978546143, 0.03826621547341347, 0.03676489740610123, 0.06407460570335388, -0.02643256075680256, -0.017824510112404823, -0.04158267006278038, -0.005739915184676647, 0.06097881495952606, -0.0038198456168174744, -0.03180850297212601, 0.0019175650086253881, 0.0645953118801117, 0.09304700791835785, -0.017598217353224754, 0.05082052946090698, -0.03528044372797012, 0.09681464731693268, 0.003013947745785117, 0.0002822487149387598, 0.0859159529209137, 0.03762950375676155, -0.03315514326095581, 0.10816702991724014, 0.0439322255551815, 0.05717754364013672, 0.1169092059135437, 0.07601387053728104, -0.04161899536848068, 0.06693018972873688, -0.01808346062898636, -0.01340467482805252, 0.027137495577335358, -0.01706176996231079, 0.06420356035232544, 0.03092970699071884, -0.056478939950466156, 0.01670994609594345, -0.03233782574534416, 0.014967389404773712, -0.02401898242533207, 0.11857058852910995, 0.04365628957748413, 0.06712557375431061, 0.03295860067009926, 0.01154544297605753, -0.036890413612127304, -0.010144032537937164, -0.07155545800924301, 0.021599460393190384},
			 {-0.013296276330947876, 0.02661055512726307, 0.08811528235673904, 0.08303219825029373, -0.011761125177145004, 0.048497673124074936, -0.029495323076844215, 0.008899591863155365, -0.03289327770471573, 0.04607439413666725, 0.05499258264899254, 0.013457870110869408, -0.03645376116037369, 0.10125749558210373, 0.0886489599943161, 0.04813842847943306, 0.04001060128211975, 0.04134580120444298, 0.04329143837094307, -0.012252917513251305, -0.030092213302850723, -0.04345215484499931, 0.10656654834747314, 0.03688063845038414, 0.0051865288987755775, -0.016871364787220955, 0.05606609210371971, 0.021346818655729294, 0.03228475898504257, 0.0019538546912372112, 0.012735415250062943, 0.09399635344743729, -0.012612770311534405, -0.019396880641579628, 0.10584624111652374, -0.005665657110512257, 0.04240887239575386, 0.03439316153526306, 0.09332896769046783, 0.01934608817100525, 0.12823671102523804, 0.03830265626311302, 0.03257443383336067, -0.018970245495438576, 0.03555535525083542, -0.024874625727534294, 0.04597342014312744, -0.032959066331386566, 0.03142865374684334, 0.052309297025203705, -0.062464457005262375, 0.036956220865249634, 0.006462231744080782, 0.03847098723053932, 0.02865486778318882, 0.11441092193126678, 0.022371971979737282, 0.029843108728528023, 0.0004533122119028121, -0.01882452331483364, -0.026176124811172485, 0.0331546775996685, 0.0012367404997348785, 0.021279308944940567},
			 {-0.008165857754647732, 0.1012779101729393, 0.03580900654196739, 0.10344529896974564, 0.06628239899873734, 0.056697387248277664, -0.022180939093232155, -0.034188468009233475, -0.0011589154601097107, -0.004748187959194183, 0.025038711726665497, 0.026409069076180458, 0.04577301815152168, 0.0807366818189621, 0.1127251610159874, 0.017395945265889168, 0.08073706179857254, 0.025965912267565727, 0.03837831690907478, -0.03243859484791756, 0.03890400379896164, -0.043583568185567856, 0.1257273554801941, -0.02370452880859375, -0.03515464812517166, -0.0708695575594902, 0.09277193993330002, 0.06906658411026001, 0.03321044519543648, 0.019713396206498146, -0.026140714064240456, 0.08983933925628662, 0.06367524713277817, -0.07560433447360992, 0.08176980167627335, 0.04745188727974892, 0.004018031060695648, 0.10403884947299957, 0.07617655396461487, -0.011977708898484707, 0.04450158774852753, 0.11609330028295517, 0.005164179019629955, -0.03411652520298958, 0.00209955801256001, 0.011690817773342133, 0.009579339995980263, 0.018872428685426712, 0.042397093027830124, 0.060456305742263794, -0.037894975394010544, 0.021165208891034126, 0.014516311697661877, 0.06906945258378983, 0.032570548355579376, 0.0950162410736084, -0.04791279882192612, 0.03087645210325718, 0.011700577102601528, -0.03988668695092201, -0.07665694504976273, -0.04471313953399658, -0.07685644179582596, -0.01303774118423462},
			 {-0.01537479367107153, 0.09625528752803802, 0.036963265389204025, 0.020900428295135498, 0.04564519599080086, 0.02996906265616417, 0.045807722955942154, 0.025945980101823807, -0.0061026811599731445, 0.04120892658829689, 0.0324178971350193, 0.02444189414381981, 0.018900740891695023, 0.10214357823133469, 0.04309793561697006, 0.0033048519399017096, 0.1116064116358757, 0.0675899088382721, -0.01664181798696518, -0.006513693835586309, 0.005388766061514616, 0.017951320856809616, 0.06319461017847061, 0.012555424124002457, -0.0753687173128128, -0.08110517263412476, 0.10859189182519913, 0.10879717022180557, 0.03080534003674984, 0.03897332400083542, 0.03935319557785988, 0.08907601237297058, 0.07818260043859482, -0.030661236494779587, 0.11560288816690445, 0.045133549720048904, -0.026202619075775146, 0.07936608791351318, 0.07673473656177521, -0.029211321845650673, 0.1079939529299736, 0.06469455361366272, -0.029017731547355652, 0.0079910634085536, -0.015113196335732937, 0.03680011257529259, -0.014265437610447407, -0.03584025055170059, 0.018222738057374954, 0.06515734642744064, -0.05997489020228386, 0.06361966580152512, 0.011414146050810814, 0.07784152776002884, -0.04892158880829811, 0.0698750838637352, -0.06245608627796173, 0.0644078254699707, 0.02607402577996254, -0.03834367170929909, -0.024790896102786064, -0.01859273761510849, -0.08508860319852829, 0.03127484396100044},
			 {-0.04020111635327339, 0.09255722910165787, 0.045752380043268204, 0.026072954759001732, -0.02519300766289234, 0.05552918463945389, -0.005319833755493164, 0.02029659040272236, 0.04064441844820976, 0.02173096314072609, -0.0038535648491233587, -0.00042739740456454456, -0.030637061223387718, 0.10157238692045212, 0.045852385461330414, -0.04200839623808861, 0.033238377422094345, 0.10727935284376144, 0.005723264534026384, -0.08026979863643646, 0.007426281459629536, 0.014348669908940792, 0.07733110338449478, 0.022864054888486862, -0.041091252118349075, -0.035058341920375824, 0.12035465985536575, 0.02574480138719082, -0.02867855876684189, -0.0006952809053473175, -0.001450181007385254, 0.1214568018913269, 0.062496744096279144, -0.03742033615708351, 0.08095041662454605, 0.026568902656435966, 0.043287161737680435, 0.11368079483509064, 0.09076625853776932, -0.030220311135053635, 0.05456845834851265, 0.07797357439994812, -0.048264868557453156, 0.03173178806900978, 0.051637228578329086, -0.0038100930396467447, -0.009141023270785809, -0.03427103906869888, 0.06549898535013199, 0.08907783776521683, -0.025001177564263344, 0.010888277553021908, 0.028270026668906212, 0.027972925454378128, -0.050005629658699036, 0.10667680203914642, -0.0018620426999405026, 0.06113659590482712, -0.027758784592151642, 0.03459947183728218, -0.043073441833257675, 0.031054917722940445, -0.07251639664173126, 0.021188165992498398},
			 {0.04182170331478119, 0.048378944396972656, 0.07953675836324692, 0.07601720839738846, 0.02984035387635231, 0.09347180277109146, 0.028527412563562393, -0.0670715942978859, -0.003672979772090912, -0.04276435449719429, 0.03030090406537056, -0.0010901328641921282, 0.039333272725343704, 0.07679897546768188, 0.028465744107961655, -0.03735026717185974, 0.09582886099815369, 0.09380491077899933, -0.003941086120903492, -0.05948581546545029, 0.04985516145825386, -0.04644632712006569, 0.10919863730669022, 0.033596429973840714, 0.004222064279019833, -0.07689565420150757, 0.02300216257572174, 0.01793459802865982, -0.055414170026779175, 0.00926518440246582, -0.03739593178033829, 0.11718668043613434, -0.009204083122313023, -0.0359501913189888, 0.12027233839035034, 0.006539819296449423, -0.011952199041843414, 0.08610071986913681, 0.040626902133226395, -0.06690315157175064, 0.10866723209619522, 0.05449557304382324, 0.006605418864637613, -0.003257560543715954, 0.0021366782020777464, -0.046899281442165375, 0.023308927193284035, -0.047630488872528076, 0.08386142551898956, 0.036790236830711365, -0.08320263028144836, 0.07621769607067108, -0.04429960995912552, 0.06724081933498383, 0.022507507354021072, 0.10174944996833801, -0.0637291669845581, 0.06124909594655037, -0.009233048185706139, -0.052786268293857574, -0.07380010187625885, 0.010600291192531586, -0.07284305989742279, -0.039528824388980865},
			 {0.029168851673603058, 0.05131884664297104, 0.11694306135177612, 0.08891163021326065, 0.023103877902030945, 0.08022776246070862, -0.04977935552597046, -0.06406153738498688, -0.02781783416867256, 0.02050640806555748, -0.05806420370936394, 0.005215131212025881, 0.015539992600679398, 0.10746707767248154, 0.045132458209991455, 0.007255809847265482, 0.08738581091165543, 0.12055175006389618, 0.02112973853945732, -0.023785993456840515, 0.026556722819805145, -0.005333425477147102, 0.1183071956038475, -0.02457329072058201, -0.05770401284098625, -0.08796204626560211, 0.10705600678920746, 0.010378630831837654, 0.011328510008752346, 0.0008555285166949034, 0.022907916456460953, 0.1232488676905632, -0.0020249495282769203, -0.09682907909154892, 0.08833565562963486, 0.024908432736992836, -0.02961057424545288, 0.08495185524225235, 0.12007128447294235, 0.004381509963423014, 0.1267552375793457, 0.07378599047660828, -0.04863535985350609, -0.004706860985606909, 0.04425373673439026, 0.003209950402379036, 0.0035901260562241077, -0.002233467996120453, 0.10286414623260498, 0.03668763116002083, -0.0923595279455185, 0.06242308393120766, -0.0027141431346535683, 0.05519035458564758, -0.04148313030600548, 0.0653829276561737, -0.03398488834500313, 0.0992424339056015, 0.039168886840343475, -0.028565850108861923, -0.03725911304354668, -0.04566240310668945, -0.042902156710624695, -0.02896224334836006},
			 {-0.041300851851701736, 0.07308247685432434, 0.10797269642353058, 0.1138429194688797, -0.0342099629342556, 0.026568155735731125, -0.000784803181886673, -0.05814032256603241, 0.03748578950762749, 0.01592942699790001, -0.06342493742704391, -0.06715389341115952, -0.00644143670797348, 0.09385893493890762, 0.051223695278167725, 0.0032087662257254124, 0.11326432228088379, 0.07857764512300491, -0.00650456128641963, -0.00586313521489501, 0.0047048344276845455, -0.04832220822572708, 0.042205870151519775, 0.021364521235227585, -0.06573668122291565, -0.05537682771682739, 0.03410385921597481, 0.05503775551915169, -0.08158830553293228, -0.06480380892753601, -0.0023637190461158752, 0.041691504418849945, -0.04549193009734154, -0.027414143085479736, 0.08472858369350433, -0.03202594444155693, -0.04377409443259239, 0.043854907155036926, 0.1289031207561493, -0.02448556013405323, 0.13196994364261627, 0.03450816869735718, -0.027954107150435448, -0.055228352546691895, 0.062170322984457016, 0.04198401793837547, -0.03531605005264282, 0.049978289753198624, 0.11448691040277481, 0.11302720010280609, -0.09813238680362701, 0.027514714747667313, -0.043866805732250214, 0.09526211768388748, -0.013423318974673748, 0.11165827512741089, -0.01440443005412817, 0.08448807895183563, 0.02672683447599411, -0.03316357731819153, -0.05444293096661568, 0.0016362182796001434, -0.07884819060564041, -0.012132156640291214},
			 {-0.015583395957946777, 0.06175338476896286, 0.036320481449365616, 0.07570717483758926, -0.0728158950805664, 0.04091096669435501, 0.004074227064847946, -0.05101669579744339, -0.009558282792568207, -0.00456608459353447, -0.10322386771440506, -0.09174710512161255, -0.005218338221311569, 0.10689976811408997, 0.008631033822894096, -0.012088564224541187, 0.08928568661212921, 0.051771119236946106, -0.009858385659754276, 0.024976640939712524, 0.040399786084890366, -0.08668334037065506, 0.09653506428003311, -0.03363821655511856, -0.10075102001428604, -0.06434468179941177, 0.03356878086924553, 0.004625534173101187, -0.0538056455552578, -0.02095537818968296, -0.03227900341153145, 0.13190948963165283, 0.020539432764053345, -0.07510298490524292, 0.11600493639707565, -0.012948420830070972, 0.02180454507470131, 0.09305015206336975, 0.0825670063495636, -0.11132560670375824, 0.11257249116897583, 0.07404586672782898, 0.028644878417253494, -0.06569704413414001, 0.017491688951849937, -0.019100371748209, -0.026286937296390533, 0.018038835376501083, 0.07309011369943619, 0.1047939881682396, -0.08626288920640945, 0.012497118674218655, -0.0031546601094305515, 0.12506486475467682, -0.013958939351141453, 0.028151268139481544, -0.061257924884557724, 0.10307607799768448, -0.027765952050685883, -0.07718373090028763, -0.07686877995729446, 0.0009058937430381775, -0.08377920091152191, -0.004349052906036377},
			 {0.009582898579537868, 0.078907810151577, 0.027059374377131462, 0.048918914049863815, -0.08387741446495056, 0.038809966295957565, 0.01204904168844223, -0.07501819729804993, 0.0494646318256855, -0.042508628219366074, -0.012496868148446083, -0.024649441242218018, -0.023746168240904808, 0.10652801394462585, 0.055039357393980026, -0.04337947443127632, 0.11049946397542953, 0.11340471357107162, -0.04686013609170914, 0.006072181276977062, 0.07319943606853485, -0.031585611402988434, 0.05488326773047447, 0.03811429813504219, -0.11738625913858414, -0.05517147108912468, 0.06646358221769333, 0.025906870141625404, -0.08901049196720123, -0.03036690689623356, 0.04209447279572487, 0.13441450893878937, -0.01929316855967045, -0.1009984165430069, 0.06296691298484802, -0.05543794855475426, -0.03761988878250122, -0.007952017709612846, 0.12282828241586685, -0.11486092209815979, 0.12625135481357574, 0.03924606740474701, -0.02538822405040264, -0.07328962534666061, 0.0918370708823204, -0.03432374447584152, -0.053989093750715256, -0.004165351390838623, 0.059705253690481186, 0.11533262580633163, -0.09361489117145538, 0.018352171406149864, -0.043660759925842285, 0.0722222775220871, 0.0019731991924345493, 0.07237069308757782, -0.11285052448511124, 0.1266348659992218, 0.015638407319784164, -0.08148230612277985, -0.06256446242332458, -0.0448237769305706, -0.08347418904304504, 0.028087127953767776},
			 {-0.04699106886982918, 0.057992078363895416, 0.07992610335350037, 0.050732389092445374, -0.04167843982577324, -0.013388858176767826, -0.027488959953188896, -0.02841041423380375, -0.012514375150203705, -0.005784165114164352, -0.0188900176435709, -0.09167396277189255, -0.013422071933746338, 0.0711040198802948, 0.03546139597892761, -0.06943479925394058, 0.12512099742889404, 0.08446475863456726, -0.07207421958446503, 0.043174080550670624, 0.06966131925582886, -0.011515820398926735, 0.07017248123884201, -0.008262217044830322, -0.07885842025279999, -0.0452592670917511, 0.03520337492227554, 0.05051568150520325, -0.07895616441965103, -0.09180931746959686, -0.0440559983253479, 0.10649275779724121, -0.03586462140083313, -0.014201157726347446, 0.061638571321964264, -0.07612632215023041, -0.027381766587495804, 0.057479988783597946, 0.056204237043857574, -0.07486148178577423, 0.07360729575157166, 0.07634177803993225, -0.02981852926313877, -0.0817122757434845, 0.06356535851955414, -0.03638937324285507, -0.08312850445508957, 0.014589343219995499, 0.12332133203744888, 0.1331636756658554, -0.10339424759149551, 0.03614749014377594, -4.2391111492179334e-05, 0.1407652348279953, 0.010075044818222523, 0.07596563547849655, -0.027593199163675308, 0.10132448375225067, 0.03233307972550392, -0.07777652144432068, -0.047849804162979126, -0.006384681910276413, -0.06279144436120987, -0.042189039289951324},
			 {-0.020800137892365456, 0.11885892599821091, 0.0936274379491806, 0.05842810869216919, -0.0903814509510994, 0.052487630397081375, -0.024787461385130882, -0.09209676086902618, 0.008807171136140823, -0.02877519093453884, -0.05915777385234833, -0.09640221297740936, 0.0024199113249778748, 0.02976013720035553, -0.006486099679023027, -0.030237257480621338, 0.08470743894577026, 0.12808296084403992, -0.06661412864923477, -0.02341698668897152, 0.016413139179348946, -0.015675583854317665, 0.055752430111169815, 0.04355501011013985, -0.09531118720769882, -0.0186049435287714, 0.03797987848520279, -0.025902587920427322, -0.07701075822114944, -0.017845265567302704, -0.008565329015254974, 0.06629837304353714, -0.02570652961730957, -0.049358367919921875, 0.03992706164717674, -0.018726490437984467, -0.0028788819909095764, 0.03734736889600754, 0.10359702259302139, -0.10340610146522522, 0.11938624083995819, 0.038667965680360794, 0.032399509102106094, -0.02206447161734104, 0.07005807757377625, 0.04845965653657913, -0.02488260343670845, -0.024409687146544456, 0.06274814158678055, 0.1347210556268692, -0.02754521742463112, 0.0034740609116852283, 0.03238654136657715, 0.04865168780088425, 0.09398173540830612, 0.05166366323828697, -0.051034633070230484, 0.05328092351555824, -0.012087516486644745, -0.031502678990364075, -0.03433440998196602, 0.009237337857484818, -0.03652703016996384, -0.012649167329072952},
			 {-0.02458134852349758, 0.05882493406534195, 0.059190135449171066, 0.12428313493728638, -0.03500233218073845, 0.023300597444176674, 0.023578200489282608, -0.02474752627313137, 0.027085814625024796, -0.02056981436908245, -0.08168505132198334, -0.0555972084403038, 0.02097204700112343, 0.03802892565727234, 0.03092024102807045, -0.09080525487661362, 0.07503800839185715, 0.09007137268781662, -0.07585262507200241, 0.03501054272055626, 0.06453008949756622, -0.02001345530152321, 0.0697275921702385, -0.04059554263949394, -0.03811753913760185, -0.08362016081809998, 0.03611340373754501, 0.009952222928404808, -0.04835927486419678, -0.06239729002118111, 0.03497861698269844, 0.11552629619836807, -0.0363910011947155, -0.06046352908015251, 0.036569442600011826, -0.025136608630418777, 0.005032051354646683, -0.025646304711699486, 0.12309350818395615, -0.00954277440905571, 0.04948165640234947, 0.044752541929483414, 0.03225375711917877, -0.09408336132764816, 0.050869427621364594, -0.005037596449255943, -0.06726803630590439, -0.03129042685031891, 0.11041086167097092, 0.06630855053663254, -0.06762221455574036, -0.05141463503241539, 0.026554008945822716, 0.09036626666784286, 0.015732863917946815, 0.06633991003036499, -0.03269466385245323, 0.03559424728155136, 0.03056291677057743, -0.08179311454296112, -0.024716373533010483, 0.027615036815404892, -0.06215675175189972, 0.006394542753696442},
			 {0.035779304802417755, 0.10469470173120499, 0.05700996145606041, 0.12799495458602905, -0.08416648954153061, 0.007540532853454351, 0.009209167212247849, -0.029183857142925262, -0.014105699956417084, 0.011576700955629349, -0.025995763018727303, -0.06710388511419296, 0.031496670097112656, 0.10960577428340912, 0.01787453517317772, -0.06460839509963989, 0.07338972389698029, 0.05226821452379227, -0.08373844623565674, -0.031155170872807503, 0.05647636577486992, -0.09468317031860352, 0.04924863204360008, -0.004844866693019867, -0.061039701104164124, -0.06932374835014343, -0.00866895355284214, 0.00721677066758275, -0.08528253436088562, -0.08687064051628113, -0.035934291779994965, 0.078785240650177, -0.038671672344207764, -0.03755035251379013, 0.013135310262441635, -0.008280079811811447, 0.014296498149633408, -0.011149303987622261, 0.12035207450389862, -0.08638636767864227, 0.037934672087430954, 0.050483588129282, 0.04120391607284546, -0.08190380036830902, 0.05744728446006775, 0.03377346694469452, -0.05652287229895592, 0.040636274963617325, 0.09059178084135056, 0.13007134199142456, -0.022119514644145966, -0.059060484170913696, -0.025618262588977814, 0.054304786026477814, 0.06395429372787476, 0.008144623599946499, -0.02497382089495659, 0.09347967803478241, -0.034914374351501465, -0.018660731613636017, -0.08564089983701706, -0.015530288219451904, -0.004253337159752846, 0.005913935601711273},
			 {0.018561504781246185, 0.07535164058208466, 0.07762426137924194, 0.04614216461777687, -0.07083394378423691, 0.04331694915890694, 0.012211956083774567, -0.006181602831929922, -0.03019549883902073, 0.0048171766102313995, -0.08111168444156647, -0.012481478974223137, -0.03164207935333252, 0.07703839987516403, 0.0018942236201837659, -0.05944252014160156, 0.10593559592962265, 0.04264368116855621, -0.04842804744839668, -0.02773265168070793, 0.07198474556207657, -0.021738028153777122, 0.044874805957078934, 0.021506670862436295, -0.011193961836397648, -0.053939469158649445, 0.009567726403474808, -0.0302319023758173, -0.06952337920665741, -0.0859360471367836, 0.04539975896477699, 0.12564247846603394, -0.06738056987524033, -0.06023842841386795, 0.06800194829702377, -0.027644043788313866, -0.010330460965633392, 0.002254493534564972, 0.08702439069747925, -0.03208264708518982, 0.030418993905186653, 0.06830112636089325, 0.019551528617739677, -0.05014986917376518, 0.0265647079795599, 0.04401490464806557, 0.006133919581770897, -0.021931661292910576, 0.07055819034576416, 0.051704373210668564, -0.054677173495292664, 0.03791052848100662, 0.039729323238134384, 0.13345947861671448, 0.08007699996232986, 0.03779492899775505, -0.06603840738534927, 0.07660721987485886, 0.007944412529468536, -0.028450211510062218, 0.003677122062072158, -0.02522937022149563, 0.011619954369962215, 0.03959057107567787},
			 {0.010558138601481915, 0.076436348259449, 0.08551681786775589, 0.03028983436524868, -0.06788405776023865, 0.059868671000003815, -0.027081167325377464, -0.05928729847073555, 0.01792936399579048, -0.041677772998809814, -0.06032406911253929, -0.04461998865008354, -0.035606443881988525, 0.0850197821855545, -0.04650036245584488, -0.014036121778190136, 0.11562268435955048, 0.0846673771739006, -0.033624451607465744, 0.0015840419800952077, 0.06719768047332764, -0.02019057236611843, 0.07640840858221054, -0.017717789858579636, -0.02643013931810856, -0.04843072593212128, 0.02815440110862255, 0.05641396716237068, -0.06996380537748337, -0.08626460283994675, 0.02315559610724449, 0.10523463785648346, 0.004537407774478197, -0.032440368086099625, 0.04162190854549408, -0.022636868059635162, 0.009439360350370407, 0.018648063763976097, 0.0785166472196579, -0.06264845281839371, 0.1211756244301796, 0.1079278439283371, 0.04295329377055168, 0.002551626181229949, 0.10543247312307358, -0.037945136427879333, -0.04123056307435036, 0.0036998875439167023, 0.11541924625635147, 0.11617140471935272, -0.040440116077661514, -0.048904940485954285, -0.025384284555912018, 0.06089623272418976, 0.07565037161111832, 0.0414150170981884, -0.05395181104540825, 0.11402556300163269, 0.015634987503290176, -0.026220867410302162, -0.013321035541594028, 0.0014624819159507751, -0.013119467534124851, -0.04261806234717369},
			 {0.045497339218854904, 0.08860267698764801, 0.03657335415482521, 0.07670407742261887, -0.016390498727560043, 0.016687162220478058, -0.022756075486540794, -0.03496398776769638, 0.016823653131723404, -0.025060594081878662, -0.04797876998782158, -0.022828662768006325, -0.04626354202628136, 0.08994702994823456, -0.013156438246369362, -0.058224163949489594, 0.10850438475608826, 0.11381692439317703, -0.04522852227091789, -0.0013079704949632287, 0.07911966741085052, -0.07068216055631638, 0.09173008799552917, 0.007592000067234039, 0.005951737519353628, 0.008562085218727589, 0.020486097782850266, 0.029782775789499283, -0.07473808526992798, -0.0750265121459961, 0.03073921427130699, 0.11364152282476425, -0.060567114502191544, -0.057598553597927094, 0.003366275690495968, -0.010971609503030777, -0.019145751371979713, 0.001789637841284275, 0.04572288691997528, -0.00794537365436554, 0.04116750508546829, 0.06607859581708908, -0.007019392680376768, 0.009056075476109982, 0.06041693314909935, 0.0010759459109976888, -0.03749729320406914, -0.005066465586423874, 0.05945313349366188, 0.05950165539979935, -0.07387691736221313, -0.009646854363381863, 0.005039877723902464, 0.12420812249183655, 0.036600157618522644, 0.10569392889738083, -0.06804914027452469, 0.03836863860487938, -0.003717666957527399, -0.05833138898015022, -0.044411253184080124, -0.006221592426300049, -0.06914641708135605, 0.028385046869516373},
			 {-0.03912344574928284, 0.09281515330076218, 0.01053423248231411, 0.12061069160699844, -0.04840678721666336, 0.07098937034606934, -0.021481668576598167, -0.027985185384750366, -0.03951256349682808, 0.004674412310123444, -0.027199098840355873, -0.04723077267408371, -0.03752242401242256, 0.09504205733537674, 0.0023741668555885553, -0.07062077522277832, 0.07738655805587769, 0.11197120696306229, -0.05329025164246559, -0.029221968725323677, 0.002742784796282649, 8.376322512049228e-05, 0.04583200067281723, -0.0025864355266094208, -0.006841373164206743, -0.053106363862752914, -0.007263352163136005, 0.0676070973277092, -0.033888138830661774, -0.06266669183969498, -0.016825519502162933, 0.08562235534191132, -0.05103867128491402, -0.011828599497675896, -0.0016112022567540407, -0.03827625885605812, -0.030707944184541702, 0.02560880035161972, 0.12042681127786636, -0.013696717098355293, 0.08724657446146011, 0.1013747900724411, -0.025432894006371498, -0.0326518639922142, 0.005026531871408224, -0.013309857808053493, -0.06838123500347137, -0.0031037814915180206, 0.10761632770299911, 0.110852912068367, -0.006435221992433071, 0.015569299459457397, 0.007769276387989521, 0.02956511452794075, 0.020737608894705772, 0.06839121878147125, -0.08143286406993866, 0.08572211861610413, 0.020941801369190216, -0.004841270856559277, -0.033961713314056396, 0.04560047760605812, -0.03431873023509979, -0.013458002358675003},
			 {0.029403747990727425, 0.04549924656748772, 0.03929354250431061, 0.08126914501190186, -0.013766763731837273, 0.027007855474948883, -0.008701540529727936, -0.0017620694125071168, 0.019623789936304092, -0.018985366448760033, 0.015699028968811035, -0.0499664805829525, 0.04989593103528023, 0.07987610995769501, -0.024291425943374634, -0.03554251044988632, 0.12197576463222504, 0.1003030389547348, -0.0393560491502285, 0.01337930653244257, 0.08368635177612305, -0.003399151610210538, 0.0978047326207161, 0.0237455852329731, -0.013810360804200172, -0.03720821440219879, 0.024511298164725304, 0.07432561367750168, -0.03516777977347374, -0.02406325191259384, 0.022781025618314743, 0.11933102458715439, 0.018701106309890747, 0.013470867648720741, 0.06466001272201538, -0.061739642173051834, -0.015130996704101562, 0.046079009771347046, 0.12879988551139832, -0.003248503664508462, 0.10581138730049133, 0.01782047376036644, 0.011609644629061222, -0.064354807138443, 0.08947718888521194, 0.025335878133773804, -0.06000009924173355, -0.01123102754354477, 0.11145658046007156, 0.10576736181974411, -0.06011606752872467, -0.00923379510641098, -0.04041469469666481, 0.11527811735868454, 0.03681156784296036, 0.08040933310985565, -0.04951070249080658, 0.04466819763183594, 0.026353806257247925, -0.0216506440192461, -0.06579046696424484, 0.04015084728598595, 0.01807471737265587, 0.008217860013246536},
			 {-0.009194460697472095, 0.049769867211580276, 0.10564609616994858, 0.06434116512537003, -0.03805237635970116, 0.049544189125299454, 0.0461227186024189, 0.001385875977575779, 0.028918754309415817, -0.024327242746949196, -0.026397529989480972, 0.002680824836716056, -0.030176354572176933, 0.013965973630547523, -0.0008060740074142814, -0.040688708424568176, 0.098827064037323, 0.06822729855775833, 0.0017678574658930302, 4.988157525076531e-05, -0.009675032459199429, -0.03513619676232338, 0.09080421179533005, -0.0023878104984760284, -0.06056209281086922, -0.07916882634162903, 0.001840522512793541, -0.016750402748584747, -0.03469478338956833, -0.0030281904619187117, -0.03023693524301052, 0.0990242287516594, 0.03540420904755592, 0.020032087340950966, 0.05381089821457863, -0.040435757488012314, -0.023144889622926712, 0.054505664855241776, 0.12781444191932678, -0.016527758911252022, 0.061805468052625656, 0.09045861661434174, -0.02790684998035431, -0.06811642646789551, 0.08816913515329361, -0.04962962493300438, -0.004480090923607349, -0.004859544336795807, 0.0729503184556961, 0.04135505482554436, -0.018537338823080063, 0.012199386022984982, 0.023307207971811295, 0.057858265936374664, 0.03069387935101986, 0.08525789529085159, -0.07254401594400406, 0.0778781995177269, 0.013773112557828426, -0.05825401470065117, 0.00834333524107933, -0.005097817629575729, -0.052711162716150284, 0.025539841502904892},
			 {0.023440411314368248, 0.016078678891062737, 0.032588712871074677, 0.062546007335186, 0.024254532530903816, 0.0034920782782137394, 0.028931166976690292, -0.03179260715842247, 0.0019827112555503845, -0.02346750535070896, -0.02362576685845852, -0.07135586440563202, -0.0338655486702919, 0.10355900228023529, 0.034639932215213776, -0.03453605994582176, 0.06678735464811325, 0.09690199047327042, -0.05547986179590225, 0.04414955526590347, 0.021759912371635437, -0.0357256680727005, 0.10948000848293304, -0.04297596216201782, -0.016774127259850502, -0.030276309698820114, 0.032328978180885315, 0.06070351228117943, -0.026426028460264206, 0.010559682734310627, -0.020789790898561478, 0.0977630615234375, 0.026828259229660034, -0.03562923148274422, 0.09594124555587769, 0.019022008404135704, -0.003221224993467331, 0.0273552518337965, 0.06725509464740753, -0.07370983809232712, 0.10795661807060242, 0.028167877346277237, 0.007595158647745848, -0.06910522282123566, 0.052080776542425156, -0.04075293987989426, -0.036023229360580444, -0.013299666345119476, 0.09236166626214981, 0.1149754673242569, -0.0742560401558876, 0.011074568144977093, 0.001911211060360074, 0.05067317560315132, 0.00395941874012351, 0.04838401451706886, -0.03753925859928131, 0.05122358724474907, 0.022294534370303154, -0.06431547552347183, -0.07913553714752197, -0.023998010903596878, -0.011160103604197502, -0.045906949788331985},
			 {-0.03362289443612099, 0.07430749386548996, 0.0861518532037735, 0.10371918231248856, -0.019263004884123802, 0.018745187669992447, 0.03709019348025322, -0.07958460599184036, -0.04844557121396065, 0.021124567836523056, -0.05344907566905022, -0.05672701075673103, 0.01715410128235817, 0.0307780634611845, 0.05828218162059784, -0.0033090803772211075, 0.10076495260000229, 0.034744907170534134, -0.02395811304450035, 0.007129976991564035, -0.01003741379827261, -0.07485586404800415, 0.037992965430021286, 0.00463702529668808, 0.014503230340778828, -0.08208511024713516, 0.06645625829696655, 0.013102513737976551, -0.04229889437556267, -0.06569834053516388, -0.00556095689535141, 0.0794001966714859, -0.02796494960784912, 0.01670946180820465, 0.021701764315366745, -0.03494951128959656, -0.013102255761623383, 0.02303718961775303, 0.13636356592178345, -0.007082981988787651, 0.038747310638427734, 0.05395909398794174, -0.03109414130449295, -0.02497018687427044, 0.08033566921949387, -0.013754066079854965, -0.052861444652080536, 0.005110513418912888, 0.07148145884275436, 0.07032504677772522, -0.002833080943673849, 0.052761852741241455, -0.04191899672150612, 0.05131283774971962, 0.08417743444442749, 0.10708640515804291, -0.040015846490859985, 0.03274771571159363, -0.0008766445098444819, -0.06462231278419495, 0.017197996377944946, -0.017580784857273102, -0.034042131155729294, -0.0469067357480526},
			 {0.010365019552409649, 0.04261349141597748, 0.01721397042274475, 0.05488619580864906, 0.017430530861020088, 0.07912846654653549, 0.04045610502362251, 0.01275875698775053, 0.041826892644166946, 0.004370592534542084, 0.02872375026345253, 0.02215624786913395, 0.042464759200811386, 0.0668041929602623, 0.03131255507469177, -0.029822373762726784, 0.11592771857976913, 0.06605072319507599, 0.019307514652609825, 0.037793658673763275, -0.00821757037192583, -0.004511064384132624, 0.06530406326055527, -0.021710706874728203, -0.05059916898608208, -0.07061322033405304, 0.010609894059598446, 0.0746990516781807, -0.026939336210489273, -0.016006283462047577, -0.029326891526579857, 0.09850665181875229, -0.01785440370440483, -0.017693476751446724, 0.014044675976037979, -0.03721937537193298, -0.0003039240837097168, -0.01182351540774107, 0.05650880187749863, -0.04841193929314613, 0.064328134059906, 0.045326873660087585, -0.04276346042752266, -0.015443348325788975, 0.03366217389702797, 0.019512249156832695, -0.05693749338388443, -0.04239153861999512, 0.09097811579704285, 0.06040061637759209, -0.07702206820249557, 0.0031491254922002554, -0.01830761320888996, 0.07709984481334686, 0.043979231268167496, 0.08580071479082108, -0.05576865002512932, 0.02620709501206875, 0.003356238594278693, -0.05294784903526306, -0.0030199296306818724, -0.008025825023651123, -0.05248885974287987, -0.04358955845236778},
			 {-0.012370280921459198, 0.06440398097038269, 0.10736843943595886, 0.11349928379058838, -0.008493940345942974, 0.05245339125394821, 0.014017511159181595, -0.05231618136167526, 0.017757844179868698, -0.01648491621017456, 0.01812831126153469, 0.024636831134557724, 0.00444427877664566, 0.0008822198142297566, 0.0615040622651577, -0.018557528033852577, 0.03192086145281792, 0.09542049467563629, -0.024913907051086426, 0.007109875790774822, -0.011710714548826218, -0.04783758893609047, 0.0831729844212532, -0.005155302584171295, -0.006880374625325203, 0.012165466323494911, 0.007496735546737909, 0.05869917944073677, 0.02763053961098194, -0.061214957386255264, -0.025422347709536552, 0.10641798377037048, 0.035404205322265625, 0.02385803312063217, 0.006724923849105835, -0.055356577038764954, 0.009858787059783936, 0.042401280254125595, 0.06583009660243988, 0.00043126282980665565, 0.07995077967643738, 0.021058332175016403, -0.009917114861309528, 0.012025508098304272, 0.02347674034535885, -0.023358233273029327, 0.01645020954310894, 0.0018323883414268494, 0.08591505140066147, 0.08237553387880325, -0.006787212565541267, 0.024914080277085304, -0.016381943598389626, 0.02388712950050831, 0.060512054711580276, 0.04010232910513878, -0.03399905189871788, 0.06632810086011887, -0.03520429506897926, 0.020969770848751068, -0.022970573976635933, 0.002839885652065277, -0.055110905319452286, 0.015035022050142288},
			 {-0.025114236399531364, 0.012547093443572521, 0.025301946327090263, 0.04102285951375961, 0.07675669342279434, 0.07903444021940231, -0.002953518182039261, 0.012251073494553566, 0.033993493765592575, -0.01914401166141033, 0.11825544387102127, 0.02437010034918785, 0.01984119787812233, -0.05106707662343979, 0.041022296994924545, 0.044147659093141556, 0.07319965958595276, 0.014460349455475807, 0.0844401866197586, -0.03492617607116699, -0.014899500645697117, 0.05476571246981621, 0.058963339775800705, -0.04441298171877861, 0.0969332605600357, 0.05336419865489006, 0.10185123980045319, 0.07519763708114624, 0.041084252297878265, 0.052059970796108246, -0.02898770570755005, 0.0075713638216257095, 0.12052469700574875, 0.06626874953508377, -0.0281984880566597, 0.04233632981777191, -0.014599192887544632, 0.0990348756313324, -0.006199060007929802, 0.05959073454141617, 0.029503390192985535, 0.02940153144299984, -0.04065713286399841, 0.10493338108062744, -0.05120685324072838, -0.004663387313485146, 0.09124798327684402, -0.021806037053465843, -0.0032095250207930803, 0.0008591178338974714, 0.058583710342645645, 0.06382520496845245, 0.04693806543946266, -0.04421121999621391, 0.020794756710529327, 0.1475299894809723, 0.06249231472611427, -0.035819169133901596, 0.01041521318256855, 0.07034352421760559, 0.06896505504846573, -0.019729508087038994, -0.031318970024585724, 0.04856342449784279},
			 {0.02029629796743393, 0.02841094881296158, 0.022404363378882408, -0.0056242444552481174, 0.08145204186439514, 0.0852724239230156, -0.011810563504695892, 0.102083221077919, 0.015823189169168472, -0.0301485788077116, 0.04747975245118141, 0.07066488265991211, -0.023390591144561768, 0.000874851131811738, 0.06715403497219086, 0.11939605325460434, 0.02912738360464573, 0.03159430995583534, 0.07079910486936569, -0.08278149366378784, -0.05052220821380615, 0.05539339780807495, 0.06551798433065414, 0.020855974406003952, 0.06767044216394424, 0.025882991030812263, 0.11279776692390442, 0.042606420814991, 0.036001477390527725, 0.09141984581947327, -0.04618678241968155, 0.016891980543732643, 0.10141081362962723, 0.012702149339020252, 0.017388319596648216, 0.12773625552654266, -0.0037837140262126923, 0.09313252568244934, -0.04013466089963913, 0.06314326077699661, 0.09361771494150162, -0.005657655652612448, 0.04559382051229477, 0.10944721102714539, -0.04598069190979004, 0.03847794607281685, 0.12487710267305374, 0.007893003523349762, 0.024240920320153236, 0.006829665508121252, 0.02458799257874489, 0.12297789007425308, 0.000756687659304589, -0.002221962669864297, -0.049195822328329086, 0.1012108102440834, 0.06565549224615097, -0.0389508493244648, -0.0461692288517952, 0.03245721384882927, 0.09783360362052917, 0.02613792195916176, 0.05993426963686943, 0.014267470687627792},
			 {-0.01419544406235218, 0.02924499288201332, 0.1045394018292427, -0.0005518665420822799, 0.06561930477619171, 0.07679746299982071, 0.0020266175270080566, 0.11475063115358353, -0.04973720386624336, -0.010419987142086029, 0.07787788659334183, 0.1088085025548935, -0.03559451177716255, -0.04687795415520668, 0.0825447142124176, 0.06866823881864548, 0.053638819605112076, 0.0005571540677919984, 0.07759388536214828, -0.06249525770545006, -0.028606323525309563, 0.03932560980319977, 0.07545923441648483, 0.017113875597715378, 0.02760232426226139, 0.04416942968964577, 0.08873952180147171, 0.06758511066436768, 0.06251571327447891, 0.07802600413560867, -0.023081958293914795, -0.030810365453362465, 0.1361248642206192, 0.0899096205830574, 0.05750638619065285, 0.10417491942644119, 0.023793887346982956, 0.041391290724277496, -0.044411033391952515, 0.09364134818315506, 0.04998652637004852, 0.02965245023369789, -0.020182961598038673, 0.042169440537691116, -0.02322065830230713, -3.8034711906220764e-05, 0.07051489502191544, 0.00877300649881363, -0.06418127566576004, 0.03148064762353897, 0.012513882480561733, 0.06567072868347168, 0.04396934434771538, -0.02723310887813568, -0.08207044005393982, 0.1106506809592247, 0.013260021805763245, -0.03372127562761307, 0.018388407304883003, 0.082682304084301, 0.0013881748309358954, 0.04294690117239952, -0.013367264531552792, 0.013731490820646286},
			 {-0.022667454555630684, -0.04946240782737732, 0.007053842302411795, 0.016162429004907608, 0.07551596313714981, 0.015000385232269764, -0.0469234362244606, 0.0866832286119461, 0.04292270168662071, 0.006475307047367096, 0.0953594520688057, 0.08903348445892334, -0.01278747245669365, -0.04462054371833801, 0.07168744504451752, 0.045783065259456635, 0.02978960983455181, 0.023951267823576927, 0.09391189366579056, -0.09949357807636261, -0.05576324090361595, 0.07108552753925323, 0.04047778993844986, -0.04433168098330498, 0.07569406926631927, 0.008021450601518154, 0.05292278528213501, 0.09994322061538696, 0.07012496888637543, 0.061753448098897934, 0.029722336679697037, -0.02050839364528656, 0.07246661931276321, 0.05399865657091141, 0.005139349959790707, 0.09886639565229416, 0.02352532371878624, 0.07045947760343552, -0.045733023434877396, 0.09669812023639679, 0.009225981310009956, -0.034792523831129074, -0.006376343779265881, 0.11187805235385895, -0.07525312900543213, 0.00993756391108036, 0.06117580458521843, -0.0343487411737442, -0.0030309264548122883, 0.009802126325666904, 0.03449290245771408, 0.09876465797424316, 0.004984734114259481, -0.010631286539137363, -0.022005463019013405, 0.1074719950556755, 0.06392764300107956, -0.024956801906228065, -0.025301067158579826, 0.11570459604263306, 0.08860377967357635, 0.026412855833768845, 0.05855787917971611, 0.03438110277056694},
			 {0.03990240767598152, -0.025651227682828903, 0.048581112176179886, -0.020050307735800743, 0.1200755313038826, 0.012369666248559952, 0.028905916959047318, 0.07417500019073486, -0.04597294330596924, -0.03522903844714165, 0.07613946497440338, 0.11000651121139526, -0.028455032035708427, -0.028462668880820274, 0.0273071750998497, 0.12110796570777893, 0.02816559001803398, -0.009255809709429741, 0.060057394206523895, -0.016628002747893333, -0.07720239460468292, 0.04174346476793289, 0.012181788682937622, -0.04474858194589615, 0.05527316406369209, 0.012848918326199055, 0.06035791337490082, 0.10086560249328613, 0.11081750690937042, 0.07888555526733398, -0.04307800531387329, -0.028734592720866203, 0.09709902852773666, 0.03405432030558586, -0.0666825994849205, 0.12401007115840912, -0.037611424922943115, 0.07954411953687668, 0.012911752797663212, 0.13036397099494934, 0.04150055721402168, -0.008042020723223686, -0.0267813578248024, 0.08661351352930069, -0.02104814723134041, 0.005186107475310564, 0.10719630867242813, 0.011235155165195465, -0.06316398829221725, -0.008408615365624428, 0.06851890683174133, 0.12174367159605026, 0.0297271516174078, -0.029555361717939377, -0.047847554087638855, 0.13016358017921448, 0.09773541986942291, -0.08567702770233154, -0.002900463994592428, 0.1068115383386612, 0.09835124760866165, -0.013250600546598434, 0.05459773913025856, 0.013671565800905228},
			 {-0.03115038201212883, -0.03189237415790558, 0.0868336409330368, -0.06229560449719429, 0.08865591883659363, 0.04316110163927078, -0.03781379386782646, 0.06644067168235779, -0.03802912309765816, -0.008277583867311478, 0.06392732262611389, 0.09701522439718246, 0.004242241382598877, -0.013246722519397736, 0.07027929276227951, 0.1132882833480835, -0.04228420928120613, 0.03145857900381088, 0.041847068816423416, -0.09110799431800842, -0.0927770808339119, 0.07154828310012817, 0.0141942473128438, 0.044342730194330215, 0.07768069952726364, 0.07401207089424133, 0.10440963506698608, 0.06901190429925919, 0.10972084105014801, 0.07575056701898575, 0.0005718357861042023, 0.044785648584365845, 0.1183391809463501, 0.05580226331949234, 0.011844946071505547, 0.05705109238624573, -0.006348002701997757, 0.02636577934026718, 0.0035833704750984907, 0.12597063183784485, 0.052480004727840424, 0.016776656731963158, 0.04000013321638107, 0.03867603465914726, -0.04289304092526436, -0.042107053101062775, 0.09255462884902954, 0.023120809346437454, 0.01936841756105423, 0.005580430384725332, 0.09140720963478088, 0.06582162529230118, 0.023381220176815987, -0.04977627843618393, -0.08626076579093933, 0.05374697595834732, 0.06187499314546585, -0.024944879114627838, 0.004609025549143553, 0.13241145014762878, 0.04209928959608078, 0.0026266463100910187, 0.055609382688999176, -0.03263489156961441},
			 {0.004326082766056061, 0.028465598821640015, 0.048915356397628784, 0.01583315245807171, 0.047268081456422806, 0.028644470497965813, -0.01809544488787651, 0.044666267931461334, 0.028667043894529343, -0.039870988577604294, 0.08541430532932281, 0.03192805498838425, 0.04645836725831032, -0.02248297818005085, 0.08448833972215652, 0.04582232981920242, 0.0340031199157238, 0.04211123660206795, 0.08346902579069138, -0.01775687374174595, -0.08109594881534576, 0.09023937582969666, 0.032804057002067566, -0.04733465984463692, 0.05352821573615074, 0.015704400837421417, 0.054052408784627914, 0.029840517789125443, 0.06934759020805359, 0.08209040760993958, 0.008574772626161575, 0.024311518296599388, 0.09517922252416611, 0.015183654613792896, 0.011440935544669628, 0.050256069749593735, 0.022312868386507034, 0.08374254405498505, -0.0012787546729668975, 0.09344524145126343, 0.07006436586380005, 0.007874295115470886, 0.0324462354183197, 0.046608854085206985, -0.09079436212778091, 0.03840971365571022, 0.09019521623849869, -0.027870643883943558, 0.005543323699384928, 0.046143170446157455, 0.09029386192560196, 0.038038212805986404, -0.031511176377534866, -0.0653303936123848, -0.05416754260659218, 0.10393022745847702, 0.06389693170785904, 0.007041507866233587, -0.005207758862525225, 0.05540057644248009, 0.008853058330714703, 0.01622258499264717, 0.05124366655945778, 0.014970991760492325},
			 {0.04432749003171921, -0.0036293661687523127, 0.008567717857658863, 0.012423786334693432, 0.061327457427978516, 0.07461915165185928, 0.03160062059760094, 0.016791682690382004, -0.02140258625149727, 0.008229099214076996, -0.01789517141878605, -0.024120286107063293, 0.024897944182157516, 0.018581777811050415, 0.043510787189006805, 0.013210715726017952, 0.059143196791410446, 0.030377060174942017, 0.015002097934484482, -0.042410630732774734, -0.011291388422250748, 0.02936704270541668, 0.06669814139604568, 0.00995028018951416, 0.06222210079431534, 0.03986138850450516, 0.06393805891275406, 0.026764927431941032, 0.00012206250539747998, 0.0234557893127203, -0.010208584368228912, 0.013238887302577496, 0.006650127470493317, -0.005892738234251738, 0.002140253782272339, 0.019849447533488274, 0.03515287861227989, 0.03790552169084549, 0.05812764912843704, 0.02748105116188526, 0.08296313136816025, 0.017096202820539474, 0.009342537261545658, 0.00833714660257101, -0.02666071616113186, -0.004092696588486433, 0.03503693640232086, -0.01028817892074585, 0.017356377094984055, 0.03439914435148239, 0.061079028993844986, 0.056478552520275116, -0.022521186619997025, 0.015836695209145546, 0.04400653392076492, 0.0712476447224617, 0.02287297509610653, 0.032659098505973816, 0.013836763799190521, 0.013779424130916595, -0.028800031170248985, -0.03434785455465317, -0.03279109299182892, -0.019373714923858643},
			 {-0.048679474741220474, 0.06007293611764908, 0.06399647891521454, 0.047198519110679626, -0.016702421009540558, 0.018905848264694214, -0.017598938196897507, -0.01857794262468815, -0.004212439060211182, -0.013674557209014893, -0.00989628303796053, 0.001311042346060276, -0.035483647137880325, 0.06571407616138458, 0.026204988360404968, 0.0034554998856037855, 0.09718268364667892, 0.09757877141237259, -0.009141874499619007, 0.053820427507162094, 0.029517408460378647, -0.031153429299592972, 0.0914558693766594, 0.026861634105443954, -0.009381961077451706, 0.023626461625099182, 0.0352645218372345, -0.03619430959224701, -0.06288985908031464, -0.03479841351509094, -0.0434856191277504, 0.08183912932872772, -0.026690367609262466, -0.031997911632061005, -0.006770004518330097, -0.03253839910030365, -0.026691187173128128, 0.05022001639008522, 0.04873483628034592, -0.026518594473600388, 0.08428797870874405, 0.060153499245643616, -0.014234155416488647, -0.04703706502914429, 0.0933624804019928, 0.008631073869764805, -0.006026520859450102, -0.002239309251308441, 0.03257264941930771, 0.083229199051857, -0.007520313840359449, -0.019295206293463707, -0.009786959737539291, 0.03152287006378174, 0.08484827727079391, 0.07446575164794922, -0.0640357956290245, 0.006238446570932865, 0.0277313943952322, -0.07158540934324265, 0.029278606176376343, 0.005160726606845856, 0.02130177989602089, -0.026407254859805107},
			 {-0.010543552227318287, 0.043572504073381424, 0.029609492048621178, 0.08024691045284271, -0.09925191849470139, 0.03337933123111725, 0.04236917570233345, -0.10276123881340027, 0.017755236476659775, -0.0416264533996582, -0.12466408312320709, -0.08678803592920303, -0.0022042393684387207, 0.04798709601163864, -0.025465616956353188, -0.03489092364907265, 0.08550335466861725, 0.09100028872489929, -0.050423670560121536, 0.07533009350299835, 0.11185219883918762, -0.0821409597992897, 0.031523048877716064, -0.01933136023581028, -0.028598405420780182, -0.05450064316391945, -0.034550074487924576, 0.004076178651303053, -0.08982114493846893, -0.1090736985206604, -0.04384652525186539, 0.08558398485183716, -0.053635597229003906, -0.07362855225801468, 0.014005935750901699, -0.0868406817317009, -0.0446733720600605, -0.00883815810084343, 0.09929709881544113, -0.060953520238399506, 0.06620679050683975, 0.11865182965993881, 0.04705679789185524, -0.11421385407447815, 0.14109057188034058, -0.025576474145054817, -0.09935649484395981, -0.005709826946258545, 0.12574836611747742, 0.12129571288824081, -0.05567757785320282, -0.049935199320316315, 0.011155586689710617, 0.07876724004745483, 0.06831315904855728, 0.019919894635677338, -0.025151710957288742, 0.07211460918188095, -0.007687602192163467, -0.10064003616571426, -0.07719682902097702, -0.015237223356962204, -0.05207791551947594, -0.045911312103271484},
			 {0.042844370007514954, 0.04509815573692322, 0.06103214994072914, 0.06611239165067673, -0.051722295582294464, -0.06621494889259338, -0.04414116218686104, -0.062475889921188354, 0.0039397962391376495, -0.006367303431034088, -0.09901685267686844, -0.08715464174747467, -0.04995439201593399, 0.11959115415811539, -0.04376161843538284, -0.09916584193706512, 0.11493964493274689, 0.11452189087867737, -0.11094511300325394, 0.06566362828016281, 0.11803999543190002, -0.07071664929389954, 0.0834166556596756, -0.030856776982545853, -0.12316638231277466, -0.12413746863603592, -0.08175503462553024, -0.04223964363336563, -0.14117780327796936, -0.10833309590816498, 0.014347556978464127, 0.1461285501718521, -0.04488777369260788, -0.06387294083833694, 0.07195807248353958, -0.12623000144958496, 0.014423813670873642, -0.05632441118359566, 0.1373138725757599, -0.1092711016535759, 0.07577719539403915, 0.06403103470802307, -0.035031259059906006, -0.13906867802143097, 0.12567785382270813, 0.037641216069459915, -0.06197231262922287, 0.04178713634610176, 0.07211007177829742, 0.1188160628080368, -0.10055634379386902, -0.09298764169216156, -0.03927561640739441, 0.16053427755832672, 0.12072679400444031, 0.031455863267183304, -0.12914659082889557, 0.1270880252122879, -0.03107190877199173, -0.10158783942461014, -0.05593659356236458, -0.016578268259763718, -0.002192961983382702, -0.01884406805038452},
			 {0.04509264975786209, 0.052577853202819824, 0.05515891686081886, 0.11764311045408249, -0.08335112780332565, -0.041018351912498474, -0.006310366094112396, -0.12705565989017487, -0.029201030731201172, -0.04360687732696533, -0.10405783355236053, -0.09659431874752045, 0.026677679270505905, 0.05305923894047737, -0.11790774017572403, -0.1410638839006424, 0.14038363099098206, 0.12012846022844315, -0.06782221049070358, 0.027054674923419952, 0.1243007481098175, -0.1263367235660553, 0.11089174449443817, -0.03609735891222954, -0.11996761709451675, -0.08561423420906067, -0.028258316218852997, -0.03817831352353096, -0.10283780097961426, -0.10500430315732956, -0.03791079670190811, 0.07938326895236969, -0.09528693556785583, -0.1267184466123581, 0.07398868352174759, -0.12596207857131958, 0.047101106494665146, -0.030181733891367912, 0.15501926839351654, -0.14109164476394653, 0.10648355633020401, 0.14853030443191528, 0.0014796345494687557, -0.11478378623723984, 0.14993080496788025, -0.034486833959817886, -0.11432703584432602, -0.0005549676716327667, 0.13480137288570404, 0.0838451161980629, -0.1357644498348236, -0.06624095886945724, 0.028053075075149536, 0.07936154305934906, 0.10046452283859253, 0.02124965377151966, -0.1148880273103714, 0.1351134330034256, 0.004894988611340523, -0.13954396545886993, -0.1422506421804428, 0.00516815111041069, -0.05779264494776726, -0.035827744752168655},
			 {-0.006151918787509203, 0.08565012365579605, 0.09088924527168274, 0.16505028307437897, -0.06341595202684402, -0.037199392914772034, -0.017019163817167282, -0.16443952918052673, 0.03143911436200142, 0.02994663640856743, -0.08702542632818222, -0.08316085487604141, 0.026920940726995468, 0.1035492792725563, -0.06878769397735596, -0.14727173745632172, 0.1447453796863556, 0.08695728331804276, -0.13554157316684723, 0.10974523425102234, 0.09440121799707413, -0.11458604037761688, 0.0625678151845932, 0.0314234159886837, -0.11838603764772415, -0.12543019652366638, -0.052270401269197464, -0.07614557445049286, -0.12333288043737411, -0.1372070461511612, 0.026742342859506607, 0.07258439064025879, -0.08582311123609543, -0.06449997425079346, 0.04836846515536308, -0.12359549105167389, -0.027553200721740723, -0.04135586693882942, 0.1121099442243576, -0.1535080522298813, 0.10483547300100327, 0.10730932652950287, 0.01515220943838358, -0.1558544635772705, 0.08603885769844055, -0.0039964038878679276, -0.0913410484790802, -0.026849115267395973, 0.09539511054754257, 0.10442416369915009, -0.09410139173269272, -0.07509569823741913, 0.021462641656398773, 0.13042673468589783, 0.11576734483242035, 0.020560400560498238, -0.08636552095413208, 0.10292775928974152, -0.0026062901597470045, -0.07656058669090271, -0.10703568905591965, -0.041272472590208054, -0.014475846663117409, 0.0040609464049339294},
			 {0.01403114851564169, 0.07058270275592804, -0.01157702412456274, 0.1487523764371872, -0.10372557491064072, -0.013746796175837517, 0.008904516696929932, -0.12278962135314941, -0.04286229610443115, 0.04473850503563881, -0.1105881929397583, -0.12154942750930786, -0.047343697398900986, 0.11936403065919876, -0.05158177763223648, -0.08605122566223145, 0.09330659359693527, 0.11001071333885193, -0.11248131096363068, 0.036780402064323425, 0.15832887589931488, -0.10867732018232346, 0.013735906220972538, -0.04750162363052368, -0.07533591985702515, -0.1456349641084671, -0.10100986808538437, -0.020823035389184952, -0.11006493866443634, -0.14427289366722107, -0.04044052213430405, 0.13919511437416077, -0.12783630192279816, -0.08619988709688187, 0.07525547593832016, -0.10773516446352005, -0.048752475529909134, -0.09562065452337265, 0.14539194107055664, -0.09241868555545807, 0.10351411253213882, 0.15532049536705017, 0.046601906418800354, -0.12322472035884857, 0.11709601432085037, -0.00872791837900877, -0.152177095413208, 0.04399478808045387, 0.1611892133951187, 0.15528613328933716, -0.12577016651630402, -0.08805466443300247, -0.023145034909248352, 0.09020541608333588, 0.11768725514411926, -0.011164786294102669, -0.10768067091703415, 0.13464216887950897, -0.02320333570241928, -0.15597377717494965, -0.12895838916301727, -0.034203220158815384, -0.04304160922765732, -0.03214903175830841},
			 {-0.004553321283310652, 0.06411714106798172, 0.0222886111587286, 0.17070387303829193, -0.107575424015522, -0.07383067160844803, 0.04083133116364479, -0.09715378284454346, -0.03546573966741562, 0.042951587587594986, -0.10335507243871689, -0.16330751776695251, 0.02820892259478569, 0.08136434108018875, -0.0760204941034317, -0.11978193372488022, 0.14034965634346008, 0.13248860836029053, -0.06765437871217728, 0.1271507292985916, 0.16154378652572632, -0.08760564774274826, 0.05337417870759964, 0.009542059153318405, -0.09494394809007645, -0.10443747788667679, -0.025886455550789833, -0.036358047276735306, -0.07249857485294342, -0.09489325433969498, -0.04166095331311226, 0.11585365235805511, -0.11885128170251846, -0.14842680096626282, 0.07485304027795792, -0.09432732313871384, 0.00011188909411430359, -0.04078447073698044, 0.10542396456003189, -0.14349210262298584, 0.0517374612390995, 0.13716113567352295, 0.023722635582089424, -0.07211510837078094, 0.1418357789516449, 0.035463135689496994, -0.13424940407276154, -0.019352948293089867, 0.14352260529994965, 0.14663122594356537, -0.11336611211299896, -0.06022900342941284, -0.0036288644187152386, 0.12567543983459473, 0.09265206754207611, -0.003984487149864435, -0.16083748638629913, 0.15058046579360962, -0.0018509526271373034, -0.15814679861068726, -0.13945786654949188, 0.0415426529943943, -0.054170552641153336, 0.01649048551917076},
			 {0.02122514136135578, 0.06023317202925682, -0.013709216378629208, 0.1333761215209961, -0.0926661416888237, -0.11180141568183899, 0.02493603155016899, -0.1504458785057068, -0.016628839075565338, -0.03180193901062012, -0.10057999938726425, -0.156906396150589, 0.03926530107855797, 0.10037769377231598, -0.1553623378276825, -0.16534584760665894, 0.1695142686367035, 0.12911033630371094, -0.13534604012966156, 0.08091575652360916, 0.13228820264339447, -0.14044010639190674, -0.008302442729473114, -0.03636031225323677, -0.084177166223526, -0.05447131022810936, -0.11000517010688782, -0.11872950941324234, -0.11170459538698196, -0.09398005157709122, -0.035541318356990814, 0.08508852869272232, -0.15332616865634918, -0.15037690103054047, 0.09896444529294968, -0.13461855053901672, -0.019775724038481712, -0.052285756915807724, 0.1672930270433426, -0.1730804294347763, 0.11711475253105164, 0.0671236515045166, -0.047941140830516815, -0.11082351207733154, 0.12132970988750458, -0.027031466364860535, -0.11833210289478302, 0.04699096456170082, 0.1276475042104721, 0.10200326889753342, -0.08922524750232697, -0.13081659376621246, -0.0265334639698267, 0.15595674514770508, 0.10486385971307755, -0.06270842254161835, -0.11489623785018921, 0.07237249612808228, 0.04641442373394966, -0.11729373037815094, -0.14641493558883667, -0.027219761162996292, -0.07746170461177826, 0.03919312730431557},
			 {0.03331093117594719, 0.04841260612010956, 0.0017274949932470918, 0.11486545205116272, -0.16235531866550446, -0.0993151143193245, -0.03607597202062607, -0.14708328247070312, -0.017071891576051712, -0.022407127544283867, -0.15971307456493378, -0.15404409170150757, 0.0093919038772583, 0.09683997184038162, -0.14688721299171448, -0.12317367643117905, 0.1577526330947876, 0.09605907648801804, -0.1403876543045044, 0.1497431993484497, 0.1444787234067917, -0.15714940428733826, 0.07487396150827408, -0.020925402641296387, -0.11927984654903412, -0.04291750118136406, -0.09325498342514038, -0.04452652856707573, -0.10375057905912399, -0.1312219351530075, 0.048966143280267715, 0.08093174546957016, -0.07929999381303787, -0.14501698315143585, 0.003397514810785651, -0.1306217610836029, 0.03920111432671547, -0.07782567292451859, 0.10275296866893768, -0.1629461944103241, 0.07589881867170334, 0.09673406183719635, -0.041981570422649384, -0.14186128973960876, 0.13574902713298798, 0.012238319963216782, -0.08735949546098709, -0.02947296015918255, 0.14052852988243103, 0.1281043142080307, -0.1493619829416275, -0.06293121725320816, -0.050177186727523804, 0.12502315640449524, 0.14080852270126343, 0.005945813376456499, -0.14436013996601105, 0.12986049056053162, -0.04677576944231987, -0.0759807750582695, -0.06498414278030396, -0.01910156011581421, -0.03431399166584015, -0.018615055829286575},
			 {0.0313219279050827, 0.049283187836408615, 0.027575155720114708, 0.16875417530536652, -0.1483052521944046, -0.09281834959983826, 0.04279542341828346, -0.1068921759724617, -0.01174302026629448, 0.005510043352842331, -0.1449292004108429, -0.13889126479625702, -0.029564833268523216, 0.124190554022789, -0.10486272722482681, -0.10886881500482559, 0.11619828641414642, 0.11288638412952423, -0.09515473991632462, 0.1532355099916458, 0.1406577080488205, -0.08222406357526779, 0.0012139009777456522, -0.00017390400171279907, -0.10854450613260269, -0.06027795746922493, -0.10609470307826996, -0.05269217491149902, -0.12577104568481445, -0.13626177608966827, -0.043010413646698, 0.10146953165531158, -0.12076268345117569, -0.06877181679010391, 0.007825475186109543, -0.16177958250045776, -0.03172940015792847, -0.09105184674263, 0.0991838350892067, -0.07895903289318085, 0.0797719806432724, 0.08191820234060287, -0.01351132057607174, -0.15051518380641937, 0.1482166349887848, -0.04804018512368202, -0.13344578444957733, -0.01818671077489853, 0.07356051355600357, 0.1516089141368866, -0.08488821983337402, -0.13589246571063995, -0.03430861979722977, 0.11717040836811066, 0.15094155073165894, -0.07029864192008972, -0.12425626069307327, 0.11904832720756531, 0.02577609196305275, -0.15321451425552368, -0.11751340329647064, -0.03565458208322525, -0.022026294842362404, 0.019471120089292526},
			 {-0.05085008591413498, 0.11035870760679245, 0.01777772232890129, 0.15571622550487518, -0.14653588831424713, -0.06730752438306808, 0.035320546478033066, -0.13776931166648865, 0.0158483125269413, -0.03236498683691025, -0.1331641972064972, -0.07437414675951004, -0.03472495079040527, 0.12478058785200119, -0.16092616319656372, -0.09003061056137085, 0.05675174295902252, 0.13249735534191132, -0.15524929761886597, 0.11571823060512543, 0.1172659769654274, -0.11676084250211716, -0.036963194608688354, 0.00605020672082901, -0.14265187084674835, -0.01988214999437332, -0.1402529627084732, -0.11795712262392044, -0.08707413822412491, -0.14784370362758636, -0.03402853012084961, 0.10759343206882477, -0.1168050542473793, -0.11668447405099869, 0.00412899861112237, -0.1080392375588417, 0.049873363226652145, -0.13397274911403656, 0.18443280458450317, -0.12550117075443268, 0.0771370679140091, 0.08168225735425949, -0.025742771103978157, -0.06948055326938629, 0.12906566262245178, 0.008327601477503777, -0.07836415618658066, -0.004371572285890579, 0.15566769242286682, 0.08388170599937439, -0.09272611886262894, -0.10455289483070374, -0.020140433683991432, 0.17487138509750366, 0.12280590087175369, 0.00523297768086195, -0.07827160507440567, 0.07835138589143753, 0.015253824181854725, -0.07604856044054031, -0.03698020055890083, 0.027885232120752335, -0.024831362068653107, -0.008836410939693451},
			 {-0.040487028658390045, 0.008392810821533203, 0.022983605042099953, 0.08692163228988647, -0.1464197337627411, -0.07072369009256363, 0.033995676785707474, -0.05502404645085335, -0.002047073096036911, -0.04620180279016495, -0.10755577683448792, -0.12530410289764404, 0.016324345022439957, 0.12171422690153122, -0.14124922454357147, -0.10364104807376862, 0.06698787957429886, 0.11918739974498749, -0.1284448355436325, 0.05960921570658684, 0.09313075989484787, -0.1007220596075058, 0.023165365681052208, -0.013316906988620758, -0.08323245495557785, -0.03454163298010826, -0.05446770414710045, -0.09642057120800018, -0.07318519055843353, -0.14431798458099365, -0.049485087394714355, 0.0741317942738533, -0.14292314648628235, -0.03456679731607437, 0.06755387783050537, -0.05985720455646515, 0.013781275600194931, -0.10217423737049103, 0.12233595550060272, -0.07823841273784637, 0.011252536438405514, 0.10436981916427612, 0.04255690053105354, -0.10980761796236038, 0.1679852157831192, -0.0246695876121521, -0.13209645450115204, 0.028873350471258163, 0.10828975588083267, 0.10397473722696304, -0.10148651897907257, -0.11197015643119812, 0.031865399330854416, 0.14683009684085846, 0.10487272590398788, -0.041178036481142044, -0.10288912802934647, 0.1013878658413887, -0.03268778324127197, -0.15343518555164337, -0.021679630503058434, -0.027386212721467018, -0.021708959713578224, 0.011090803891420364},
			 {0.03992500156164169, 0.05050721764564514, 0.021115684881806374, 0.0896538719534874, -0.08413432538509369, -0.1118871346116066, -0.026954615488648415, -0.11666577309370041, -0.019872022792696953, -0.04242147132754326, -0.06449178606271744, -0.09421207755804062, 0.046949755400419235, 0.03823069483041763, -0.10806816816329956, -0.059920474886894226, 0.1245088130235672, 0.07384992390871048, -0.1128578931093216, 0.1370786875486374, 0.08881007134914398, -0.1289745569229126, 0.0010289686033502221, -0.03557654470205307, -0.13086868822574615, -0.0532759390771389, -0.09337790310382843, -0.11644408106803894, -0.06323887407779694, -0.13722661137580872, 0.04561629518866539, 0.10125530511140823, -0.09447409957647324, -0.04259894788265228, -0.03425327315926552, -0.12471124529838562, 0.04513644054532051, -0.08755139261484146, 0.14982916414737701, -0.05442865937948227, -0.004500119481235743, 0.034219034016132355, 0.017696116119623184, -0.07210418581962585, 0.1278146505355835, 0.014896193519234657, -0.058144181966781616, -0.04658876731991768, 0.09855115413665771, 0.05534349009394646, -0.106285959482193, -0.0800701454281807, 0.026086309924721718, 0.16859471797943115, 0.15911902487277985, -0.056598860770463943, -0.04425305500626564, 0.11824831366539001, -0.028985830023884773, -0.0797954574227333, -0.07518429309129715, -0.0236221794039011, 0.04409455135464668, -0.030049337074160576},
			 {0.039726193994283676, 0.070890411734581, -0.03162379190325737, 0.10059348493814468, -0.05422352999448776, -0.02276901714503765, 0.036975692957639694, -0.03072354570031166, -0.021241461858153343, -0.04542764648795128, -0.04631799831986427, -0.06999995559453964, 0.021384861320257187, 0.027480697259306908, -0.13939286768436432, -0.1323077380657196, 0.10933531075716019, 0.06160245090723038, -0.039718907326459885, 0.10142026841640472, 0.09724301099777222, -0.1351168155670166, -0.01662391424179077, 0.013716090470552444, -0.07420814037322998, -0.03291908651590347, -0.02513151243329048, -0.06978451460599899, -0.0911354050040245, -0.03502579778432846, 0.0407869927585125, 0.08425367623567581, -0.12640230357646942, 0.001776189892552793, -0.01960889622569084, -0.1325157731771469, 0.04265272989869118, -0.08304084837436676, 0.0773436576128006, -0.041237421333789825, 0.006144324783235788, 0.029038818553090096, -0.04588604345917702, -0.08864640444517136, 0.13674557209014893, 0.002099950797855854, -0.09418080747127533, 0.01126927137374878, 0.046696051955223083, 0.12160132080316544, 0.0001460182829760015, -0.0746760442852974, -0.020865319296717644, 0.10614301264286041, 0.15038873255252838, 0.016723837703466415, -0.05215621739625931, 0.11910174041986465, -0.03548634797334671, -0.04398495331406593, -0.012490193359553814, -0.0075739845633506775, 0.011845352128148079, -0.039207398891448975},
			 {0.030205056071281433, 0.0330587737262249, -0.05083663389086723, 0.12310398370027542, -0.10245253145694733, -0.00873459130525589, -0.03462231159210205, -0.09388533234596252, -0.042144834995269775, 0.013857457786798477, -0.05496431514620781, -0.0882255956530571, -0.004655946046113968, 0.019047509878873825, -0.1110461950302124, -0.08939556032419205, 0.06097489967942238, 0.07182108610868454, -0.0898270532488823, 0.04972893372178078, 0.12612895667552948, -0.03886823356151581, 0.013216895051300526, -0.013974286615848541, -0.05388006940484047, -0.013942331075668335, -0.10962231457233429, -0.055152714252471924, -0.017093919217586517, -0.1019032746553421, -0.03275050222873688, 0.030186885967850685, -0.11299804598093033, -0.04446788877248764, -0.006725736428052187, -0.1069522276520729, -0.005646347999572754, -0.08770891278982162, 0.1449967473745346, -0.11500225216150284, 0.056145645678043365, 0.014501066878437996, 0.04480508342385292, -0.09762990474700928, 0.13987907767295837, -0.031920455396175385, -0.07585250586271286, 0.0036929361522197723, 0.0812041386961937, 0.13084523379802704, -0.049225740134716034, -0.057819053530693054, 0.047164615243673325, 0.1295900195837021, 0.1510474532842636, -0.009508039802312851, -0.07440416514873505, 0.08398152887821198, -0.04647187143564224, -0.041795868426561356, -0.006636380217969418, -0.011854469776153564, -0.0003233265015296638, 0.026082072407007217},
			 {-0.047619692981243134, -0.011439449153840542, -0.039765603840351105, 0.11669202148914337, -0.027642155066132545, -0.06002223119139671, -0.005167342722415924, -0.035222187638282776, -0.03367649391293526, 0.01864706352353096, -0.0989057645201683, -0.07236733287572861, -0.04162437841296196, 0.020570330321788788, -0.07502920925617218, -0.0845656469464302, 0.07545364648103714, 0.018729189410805702, -0.09128334373235703, 0.09018949419260025, 0.10920368134975433, -0.023410851135849953, 0.029950834810733795, -0.004618275910615921, -0.052407629787921906, -0.04303951561450958, -0.07389314472675323, -0.05340999364852905, -0.10013394802808762, -0.01855788193643093, 0.0009736903011798859, 0.05583949759602547, -0.05001170188188553, -0.0643094927072525, -0.038515567779541016, -0.09336959570646286, -0.03069847822189331, -0.04264998063445091, 0.14494164288043976, -0.04234003275632858, 0.07584112882614136, 0.038276609033346176, 0.043404508382081985, -0.07823202759027481, 0.09202581644058228, -0.002915057120844722, -0.036918435245752335, -0.04383232817053795, 0.05312023684382439, 0.0576736256480217, -0.009612699039280415, -0.10869182646274567, -0.0352657288312912, 0.14366447925567627, 0.12072110176086426, 0.04597076401114464, -0.05664104223251343, 0.07177236676216125, -0.047308649867773056, -0.03718779236078262, -0.03783521056175232, -0.020019663497805595, 0.018216220661997795, -0.04841236025094986},
			 {0.02157619036734104, -0.0063021364621818066, -0.030403900891542435, 0.06668233871459961, -0.037179816514253616, -0.0161339920014143, -0.04844380542635918, -0.04379992187023163, 0.021366003900766373, -0.011175323277711868, -0.10600436478853226, 0.0044275508262217045, -0.01957540586590767, 0.05853210762143135, -0.026756439357995987, -0.028581883758306503, 0.04458747059106827, 0.06110447645187378, -0.08592569082975388, 0.04872681573033333, 0.10411261767148972, -0.025968318805098534, 0.03190534934401512, -0.04160945490002632, -0.022099900990724564, 0.004217288922518492, 0.020953919738531113, -0.036914512515068054, -0.06704164296388626, -0.02109672874212265, -0.022818828001618385, 0.10357493162155151, -0.0050129760056734085, -0.05088493227958679, 0.039161380380392075, -0.09008762985467911, -0.0024533383548259735, -0.0003779253747779876, 0.12931682169437408, -0.09045078605413437, 0.03569876402616501, -0.0054084560833871365, -0.006205273792147636, -0.050237029790878296, 0.06836587935686111, 0.03989001363515854, 0.004152668174356222, -0.005902469158172607, 0.07719890773296356, 0.0932939276099205, -0.01747353933751583, -0.04877114295959473, -0.027299193665385246, 0.03566380962729454, 0.0437687411904335, 0.004712834022939205, -0.0625573992729187, 0.017034972086548805, 0.04001544415950775, -0.049440935254096985, -0.045302070677280426, 0.02185628190636635, 0.05778929963707924, 0.004087138921022415},
			 {0.04535311087965965, -0.06597965955734253, -0.07103922963142395, -0.08505818992853165, 0.06863284856081009, -0.07060834765434265, -0.039372850209474564, 0.1378856748342514, 0.02208130434155464, -0.0011568665504455566, 0.0777815505862236, 0.0629977360367775, -0.019634628668427467, -0.06871186196804047, 0.007447701413184404, 0.0974927768111229, -0.0455443374812603, -0.03380434215068817, 0.07312651723623276, 0.019947269931435585, -0.06156214699149132, 0.08935130387544632, -0.030215462669730186, 0.030599188059568405, 0.14294907450675964, 0.13591261208057404, 0.012103456072509289, -0.015811139717698097, 0.06334442645311356, 0.12014416605234146, -0.01318822056055069, -0.06932960450649261, 0.09719864279031754, 0.1477525681257248, -0.06650049239397049, 0.029968377202749252, 0.030165638774633408, -0.05776135250926018, -0.05652960017323494, 0.09121780842542648, -0.00740920240059495, -0.12368781119585037, 0.036919575184583664, 0.10396596789360046, -0.024202218279242516, 0.039231084287166595, 0.11591413617134094, 0.023820672184228897, -0.0777837261557579, -0.019422732293605804, 0.0612495057284832, -0.005246974527835846, 0.035857122391462326, -0.024020668119192123, 0.05791172757744789, 0.12093871831893921, 0.13638514280319214, -0.10989651083946228, -0.023401988670229912, 0.048621173948049545, 0.13706795871257782, -0.036748338490724564, 0.14431068301200867, -0.022305333986878395},
			 {0.005120502784848213, -0.1196490228176117, -0.029034685343503952, -0.04697471112012863, 0.09011480957269669, -0.08261748403310776, -0.04532870277762413, 0.09005124121904373, 0.039914678782224655, -0.04336942359805107, 0.11293032020330429, 0.09988763928413391, 0.041598740965127945, -0.07273164391517639, -0.06487157940864563, 0.11634115874767303, -0.02926657535135746, -0.09938493371009827, 0.11579440534114838, 0.004837545100599527, -0.04375281557440758, 0.05042089894413948, -0.013404080644249916, 0.029377494007349014, 0.12331058084964752, 0.05097898095846176, -0.06859574466943741, -0.06860364973545074, 0.0553504042327404, 0.095087930560112, 0.04344912990927696, -0.055939145386219025, 0.10388635843992233, 0.14902016520500183, -0.11316253244876862, 0.05998954921960831, -0.012034356594085693, 0.012580381706357002, -0.07648817449808121, 0.10171271115541458, -0.00046715541975572705, -0.05215877667069435, 0.016801217570900917, 0.039580877870321274, -0.00034196145134046674, 0.021642612293362617, 0.10372357070446014, -0.034487366676330566, -0.07301107794046402, -0.024780521169304848, 0.11410944908857346, -0.02111966535449028, 0.04550608992576599, -0.10088202357292175, 0.05494724586606026, 0.08556278795003891, 0.12479673326015472, -0.0550801046192646, -0.007827640511095524, 0.13418765366077423, 0.15358828008174896, -0.0048694126307964325, 0.11133664846420288, -0.04464011266827583},
			 {-0.03786632418632507, -0.07231277972459793, -0.04974014312028885, -0.0917852595448494, 0.0593181736767292, -0.034372251480817795, -0.04704077169299126, 0.13827386498451233, 0.025968704372644424, 0.026824478060007095, 0.06517351418733597, 0.06113949045538902, 0.04178669676184654, -0.12597419321537018, -0.023402640596032143, 0.08787596970796585, -0.07889603078365326, -0.011639726348221302, 0.0611225925385952, 0.09434644132852554, -0.09481494873762131, 0.12226749956607819, -0.055528100579977036, -0.006781768053770065, 0.05620371922850609, 0.12901906669139862, 0.0067433444783091545, -0.021682873368263245, 0.07871069759130478, 0.06665648519992828, -0.030242646113038063, -0.060390591621398926, 0.07085007429122925, 0.0856839269399643, -0.04948962479829788, 0.09201469272375107, -0.010653067380189896, 0.010024580173194408, -0.037835996598005295, 0.13153602182865143, -0.055786482989788055, -0.046287719160318375, -0.012225025333464146, 0.11412075906991959, -0.06561116129159927, 0.025642530992627144, 0.08048103004693985, -0.008211970329284668, -0.06300879269838333, -0.04059617966413498, 0.053590644150972366, -0.030563103035092354, 0.032173242419958115, -0.062106139957904816, 0.017254851758480072, 0.09516899287700653, 0.11965319514274597, -0.10831813514232635, 0.018425552174448967, 0.0975358709692955, 0.12412329018115997, -0.011333264410495758, 0.06010090559720993, -0.034434426575899124},
			 {0.02234869822859764, -0.02708272449672222, -0.0560736358165741, -0.022372839972376823, 0.09090442955493927, -0.036798812448978424, 0.031066667288541794, 0.13097058236598969, 0.021387625485658646, -0.016778718680143356, 0.05308500677347183, 0.07097811996936798, 0.021261993795633316, -0.0257277749478817, 0.0006170411361381412, 0.08372306078672409, -0.08854091167449951, -0.07028856128454208, 0.06960082799196243, 0.022350776940584183, -0.07995722442865372, 0.10801295936107635, -0.009821326471865177, -0.02209867350757122, 0.1379372924566269, 0.11353695392608643, 0.029457442462444305, -0.050090987235307693, 0.061164770275354385, 0.03666078299283981, 0.028292153030633926, -0.08168690651655197, 0.012966480106115341, 0.10139594227075577, -0.05009634047746658, 0.05565895885229111, -0.03197389841079712, -0.004679027944803238, -0.020449941977858543, 0.07442451268434525, -0.03367285802960396, -0.04948423430323601, 0.018956586718559265, 0.07018809765577316, -0.017546938732266426, -0.020156724378466606, 0.09764830768108368, 0.03740494325757027, -0.0954187735915184, -0.08157943189144135, 0.048674095422029495, 0.052820175886154175, 0.0007302484009414911, -0.06734021753072739, 0.044289473444223404, 0.11674296855926514, 0.09340965747833252, -0.100037582218647, -0.04989326000213623, 0.08211228251457214, 0.044960178434848785, -0.005793116986751556, 0.08951220661401749, -0.03141695261001587},
			 {-0.024181360378861427, -0.07415951043367386, -0.0353551022708416, -0.05938366428017616, 0.03695158287882805, -0.03315878286957741, 0.015914928168058395, 0.05718544125556946, -0.02945183590054512, 0.007864225655794144, 0.1124793067574501, 0.062156591564416885, 0.019507158547639847, -0.021094324067234993, -0.010698697529733181, 0.06364428251981735, -0.002481376752257347, -0.008590021170675755, 0.07422702014446259, 0.020529652014374733, -0.007176807150244713, 0.11189262568950653, -0.0014477797085419297, 0.015853140503168106, 0.08622545003890991, 0.047215141355991364, -0.007187563925981522, 0.008461440913379192, 0.06887659430503845, 0.060198985040187836, 0.023834731429815292, -0.03470813110470772, 0.07930807024240494, 0.08770238608121872, -0.08186659961938858, 0.01566443406045437, 0.03129837289452553, -0.03378847613930702, -0.04971671849489212, 0.05650379881262779, 0.01049500796943903, -0.040741436183452606, 0.03953582048416138, 0.02472548373043537, -0.042244166135787964, 0.04391353577375412, 0.10881974548101425, 0.014975342899560928, -0.016321619972586632, -0.04578403756022453, 0.06781881302595139, 0.04401501640677452, 0.00802225898951292, -0.05906075984239578, 0.06644479185342789, 0.09749189019203186, 0.09233319014310837, -0.04804757982492447, -0.032942645251750946, 0.023413455113768578, 0.06779839843511581, 0.007012676447629929, 0.1209675669670105, 0.00455392524600029},
			 {-0.003481603227555752, 0.001498197903856635, -0.019606059417128563, -0.08111575990915298, 0.10407973825931549, -0.019602637737989426, -0.03552669286727905, 0.054627154022455215, -0.016541682183742523, -0.010124586522579193, 0.11556883156299591, 0.05504343658685684, 0.03863873705267906, -0.019998205825686455, 0.026880735531449318, 0.11751510947942734, -0.06089799851179123, -0.07031640410423279, 0.08477513492107391, 0.03884560614824295, -0.09493470937013626, 0.09761446714401245, -0.03128651902079582, 0.022385451942682266, 0.0762031227350235, 0.07726217806339264, 0.0057492381893098354, -0.0002740694326348603, 0.0899801179766655, 0.05990475416183472, 0.03151552751660347, -0.0179987084120512, 0.10992605984210968, 0.08416911214590073, -0.04997808858752251, 0.0347210094332695, 0.04437157139182091, -0.013260613195598125, -0.06283196061849594, 0.06090822070837021, -0.012992776930332184, -0.03848749026656151, -0.0030862472485750914, 0.10017694532871246, -0.04440091550350189, 0.03337300941348076, 0.034888651221990585, 0.04316693916916847, -0.01711459644138813, 0.008628002367913723, 0.09047017991542816, 0.0247951652854681, -0.048065185546875, 0.00883521419018507, 0.018658319488167763, 0.1204434484243393, 0.08601389825344086, -0.013055804185569286, -0.016101907938718796, 0.0778527557849884, 0.07491443306207657, -0.027297867462038994, 0.09537985175848007, -0.042335428297519684},
			 {-0.025944076478481293, -0.0845130905508995, -6.705737905576825e-05, -0.06808105856180191, 0.03762301802635193, 0.0071550277061760426, -0.004012107849121094, 0.05614013597369194, 0.020566988736391068, -0.00916733592748642, 0.10252705216407776, 0.04007980599999428, 0.014585081487894058, -0.032039519399404526, -0.03173857182264328, 0.1019434928894043, -0.0124644935131073, -0.023787295445799828, 0.023546898737549782, 0.009137347340583801, -0.07695258408784866, 0.10244441032409668, 0.046257760375738144, 0.020119253545999527, 0.1258094608783722, 0.05999694764614105, 0.01775222271680832, -0.007551131770014763, 0.09794694185256958, 0.120021291077137, -0.02733210287988186, -0.05355072021484375, 0.10292920470237732, 0.07383646816015244, -0.04623228311538696, 0.08767107874155045, -0.0026809796690940857, -0.00656391866505146, 0.02723274938762188, 0.06678132712841034, 0.021246563643217087, 0.0015101679600775242, 0.03961779549717903, 0.025592144578695297, -0.06597620248794556, -0.002643311396241188, 0.06199594587087631, 0.04511961713433266, -0.041133567690849304, 0.0031478535383939743, 0.0574578121304512, 0.030211929231882095, 0.04538120701909065, -0.08723212033510208, -0.008052803575992584, 0.13975800573825836, 0.06724541634321213, -0.08657330274581909, -0.029721898958086967, 0.08711963146924973, 0.032656893134117126, -0.013647772371768951, 0.06781844049692154, -0.0014987103641033173},
			 {-0.04636998474597931, -0.08493006974458694, 0.023583199828863144, -0.005568489897996187, 0.033736396580934525, -0.0025596315972507, 0.0370519645512104, 0.1135038509964943, 0.03145258501172066, -0.02481132745742798, 0.04533756896853447, 0.09623873978853226, 0.036155927926301956, -0.03513616323471069, 0.0356818325817585, 0.054198116064071655, 0.0022635599598288536, -0.050164561718702316, 0.04229763150215149, 0.032267216593027115, -0.02394235134124756, 0.01665596105158329, 0.00810612179338932, -0.022343933582305908, 0.05263452231884003, 0.07588367164134979, -0.0015434377128258348, -0.03327425941824913, 0.03447490930557251, 0.05177730694413185, -0.019954705610871315, -0.03253205865621567, 0.0631370022892952, 0.09521129727363586, -0.019238140434026718, 0.08349627256393433, -0.017424307763576508, -0.025043880566954613, 0.013609863817691803, 0.08653762191534042, -0.022581860423088074, -0.06008492410182953, -0.02763942815363407, 0.051677267998456955, -0.011773688718676567, -0.010181516408920288, 0.054840367287397385, -0.025100624188780785, -0.04441632330417633, 0.0258511770516634, 0.10255813598632812, -0.015071399509906769, 0.005292924586683512, -0.02257183939218521, 0.03895483538508415, 0.04847946763038635, 0.07498446851968765, -0.09504198282957077, 0.019830627366900444, 0.029242228716611862, 0.10191047936677933, -0.0281501654535532, 0.1151350662112236, 0.005725394934415817},
			 {-0.02743443101644516, -0.052943188697099686, -0.017330516129732132, -0.0046454016119241714, 0.030106056481599808, -0.05267253518104553, -0.04734937101602554, 0.03686177730560303, -0.040507055819034576, -0.04124077409505844, -0.01960332877933979, 0.08811134099960327, -0.010214269161224365, -0.01902374066412449, -0.08885173499584198, -0.014464959502220154, -9.70617329585366e-05, 0.01650032214820385, 0.030282296240329742, 0.017138926312327385, 0.047091469168663025, 0.038051117211580276, 0.014504735358059406, 0.021325495094060898, 0.014630753546953201, 0.07405058294534683, -0.048718661069869995, -0.05629921332001686, 0.07294273376464844, 0.007435409817844629, 0.008732974529266357, -0.007822396233677864, 0.010035285726189613, 0.01392931118607521, -0.05119234696030617, -0.003821850987151265, -0.004216514527797699, -0.07823524624109268, 0.060860294848680496, 0.08052324503660202, 0.005893611814826727, -0.05548705905675888, -0.04846706986427307, 0.03595676273107529, 0.045770350843667984, 0.011527993716299534, 0.03263942524790764, -0.011646531522274017, -0.03208111599087715, -0.023236477747559547, 0.08747296780347824, 0.025083081796765327, -0.03621412813663483, 0.05618147924542427, 0.04125054553151131, 0.07996460050344467, 0.010043075308203697, 0.023463934659957886, 0.013820560649037361, 0.07465013116598129, 0.08573289215564728, -0.00418926402926445, 0.0625910609960556, 0.030586685985326767},
			 {0.0435282364487648, -0.02411184273660183, -0.0402388796210289, 0.08112912625074387, -0.0012781564146280289, -0.014001141302287579, -0.016707979142665863, 0.02985423430800438, 0.015151027590036392, -0.020562922582030296, -0.055759329348802567, 0.016744816675782204, -0.03828812763094902, -0.012124565429985523, -0.08480101078748703, -0.03138314187526703, 0.0760231614112854, 0.007502377964556217, 0.02314021810889244, 0.05269473046064377, 0.035446636378765106, -0.029613496735692024, -0.031697794795036316, 0.004760801792144775, 0.05170101672410965, -0.03259772062301636, -0.07599179446697235, -0.03954789787530899, -0.04581768810749054, 0.02797774411737919, 0.03297964110970497, 0.0036519092973321676, -0.017615506425499916, 0.02825332246720791, -0.04266301915049553, -0.04120296612381935, -0.039576493203639984, 0.004390276037156582, 0.0898832157254219, 0.021993562579154968, 0.06571356952190399, 0.01379313599318266, 0.02057185024023056, 0.016683995723724365, 0.10251212120056152, 0.014316199347376823, -0.045469507575035095, -0.02986915223300457, -0.00712627312168479, 0.010478820651769638, 0.025762535631656647, -0.0682150274515152, 0.021792156621813774, 0.10236526280641556, 0.10143487900495529, 0.028448699042201042, 0.029012391343712807, 0.033322546631097794, 0.02707570604979992, 0.009913014248013496, 0.035557836294174194, 0.028043393045663834, 0.033628612756729126, -0.04039034992456436},
			 {-0.041351426392793655, 0.01328256819397211, 0.046116214245557785, 0.0642494484782219, -0.020869992673397064, 0.017036931589245796, -0.025260044261813164, -0.02504643239080906, -0.03819868713617325, -0.031524717807769775, -0.059488650411367416, -0.07675893604755402, -0.030995547771453857, 0.035013217478990555, -0.01623968780040741, -0.07525699585676193, 0.024580426514148712, 0.06306057423353195, 0.005449371878057718, 0.0729696974158287, 0.031412288546562195, -0.04468921571969986, -0.01050723809748888, -0.042972516268491745, 0.001824956270866096, 0.040024708956480026, -0.05054853484034538, -0.01472572423517704, -0.04718562960624695, -0.04833632707595825, -0.011490534991025925, 0.08788909763097763, -0.09328897297382355, -0.00496726855635643, 0.04698019102215767, -0.02202012576162815, -0.03330199792981148, 0.008245689794421196, 0.0639343112707138, -0.060020022094249725, 0.08366826921701431, 0.0351211279630661, -0.005681256763637066, -0.005506932269781828, 0.04189809039235115, -0.010289658792316914, -0.00016564498946536332, 0.04682382568717003, 0.04374676197767258, 0.09302403032779694, 0.020775826647877693, -0.027305403724312782, 0.03427468240261078, 0.0757765993475914, 0.12369728088378906, 0.07095859199762344, -0.0013132344465702772, 0.032095614820718765, -0.031279418617486954, -0.05832720547914505, -0.042859502136707306, -0.012794815003871918, 0.05758872628211975, 0.020308706909418106},
			 {-0.049555111676454544, 0.07675298303365707, -0.008226034231483936, 0.05528450757265091, -0.042649731040000916, -0.02770877070724964, 0.035869572311639786, -0.06095916032791138, 0.0485127829015255, 0.02038278803229332, -0.019859887659549713, -0.05387651547789574, 0.02246362343430519, 0.009783439338207245, -0.023400714620947838, -0.009781451895833015, 0.09630634635686874, 0.023577867075800896, -0.030492067337036133, 0.021487465128302574, 0.033408310264348984, -0.035336386412382126, 0.02231765165925026, 0.016171161085367203, -0.047517795115709305, -0.016010206192731857, -0.0033233293797820807, 0.04269476607441902, -0.021813666447997093, -0.06528611481189728, -0.04494429752230644, 0.028725529089570045, -0.07327675074338913, 0.004821503534913063, 0.029772311449050903, -0.06296899169683456, -0.006651211529970169, -0.04616754502058029, 0.06824810802936554, -0.024098718538880348, 0.03518814593553543, 0.024915268644690514, -0.01793382316827774, -0.005221175495535135, 0.030372921377420425, 0.029494918882846832, -0.008538283407688141, -0.0162239670753479, 0.041204486042261124, 0.100533127784729, -0.021778689697384834, -0.02307773195207119, -0.008213666267693043, 0.053050071001052856, 0.0894199013710022, 0.07783151417970657, -0.022602535784244537, 0.06110510230064392, -0.037612732499837875, -0.04983419179916382, 0.02012934908270836, -0.04254956170916557, 0.008102607913315296, -0.04218944534659386},
			 {0.003123681293800473, 0.007552366238087416, 0.044882696121931076, 0.02863147482275963, -0.06226934865117073, 0.06747858971357346, -0.023019706830382347, 0.018837742507457733, 0.036949846893548965, -0.028829647228121758, 0.020926345139741898, -0.019835520535707474, -0.039418138563632965, 0.021584300324320793, 0.044675204902887344, -0.05123002454638481, 0.07239522784948349, 0.08137890696525574, -0.047929707914590836, -0.01322353258728981, 0.0655088946223259, 0.001561604905873537, 0.08926988393068314, -0.03509344905614853, -0.009909183718264103, 0.003817617194727063, -0.0025738554541021585, 0.058050159364938736, -0.060111090540885925, -0.031239638105034828, 0.03111812099814415, 0.060411471873521805, 0.010837639681994915, -0.0408325120806694, 0.05780218541622162, -0.06585969775915146, -0.010583914816379547, -0.027331609278917313, 0.09745677560567856, -0.031442929059267044, 0.06168010085821152, 0.09577661007642746, -0.025734808295965195, -0.019784172996878624, 0.00805974192917347, -0.047560229897499084, 0.022720633074641228, -0.026379263028502464, 0.07172589749097824, 0.04408235102891922, -0.020875273272395134, -0.017071370035409927, 0.0478077232837677, 0.10933645814657211, 0.09538223594427109, 0.08399895578622818, -0.0634894147515297, 0.07907090336084366, 0.02012738399207592, 0.027515465393662453, -0.046481288969516754, -0.011538375169038773, 0.001964803086593747, -0.04343155771493912},
			 {-0.048130568116903305, 0.006899837404489517, 0.08465752005577087, 0.016598332673311234, -0.030067920684814453, 0.031539436429739, 0.016899537295103073, -0.04039882868528366, -0.02472386322915554, -0.01674666255712509, 0.042272068560123444, 0.000550155236851424, -0.01540445163846016, 0.024210115894675255, 0.04404671490192413, 0.000466060359030962, 0.047065068036317825, 0.06966090202331543, -0.025131184607744217, 0.0018551629036664963, 0.019060084596276283, 0.01302109844982624, 0.09230852127075195, 0.0298059843480587, -0.034423548728227615, 0.00017022168322000653, -0.010485763661563396, 0.008264563977718353, 0.012208305299282074, 0.008059985004365444, 0.04506656154990196, 0.01806696690618992, 0.03512246161699295, 0.012952023185789585, 0.03363686054944992, -0.04564537853002548, 0.007330022752285004, 0.0358751006424427, 0.028272267431020737, -0.02311083860695362, 0.1089792549610138, 0.02593052387237549, -0.050151191651821136, 0.041786082088947296, 0.01987651363015175, -0.04260706901550293, 0.044942330569028854, -0.029055381193757057, 0.044675350189208984, 0.08638575673103333, 0.03532490134239197, 0.024312306195497513, 0.028151245787739754, 0.044580377638339996, -0.005192392505705357, 0.07087276130914688, 0.01780797354876995, 0.0035755725111812353, -0.01480384822934866, -7.348926010308787e-05, 0.01694120094180107, -0.016600728034973145, 0.017298774793744087, -0.03329525142908096},
			 {0.0477386899292469, 0.06295356899499893, 0.08548926562070847, -0.0023617094848304987, 0.06347152590751648, 0.007975148037075996, -0.02534501627087593, 0.025489751249551773, 0.04727110639214516, -0.038023244589567184, 0.002728149062022567, 0.006329025607556105, 0.01765347644686699, -0.011205404996871948, -0.0217905156314373, 0.024657659232616425, 0.04218366742134094, 0.029427750036120415, 0.05387762561440468, -0.05102114751935005, 0.03039548732340336, 0.021205676719546318, 0.004911883734166622, -0.0371055006980896, -0.004679710604250431, -0.0203290656208992, 0.017483634874224663, 0.06500294059515, 0.024158000946044922, 0.04023948311805725, -0.04935638979077339, 0.030115701258182526, 0.06504817306995392, 0.04415350407361984, 0.04731099680066109, 0.008071940392255783, -0.010707508772611618, 0.07571949809789658, 0.02833051048219204, 0.049095187336206436, 0.061622075736522675, 0.026253165677189827, 0.020765842869877815, 0.04762125760316849, -0.0014496288495138288, -0.03755961358547211, 0.009534049779176712, -0.023867297917604446, 0.0694141760468483, 0.08461838215589523, 0.04911597818136215, 0.06815701723098755, -0.04807281121611595, 0.055270809680223465, -0.018148720264434814, 0.1011180430650711, 0.014376948587596416, 0.0011041274992749095, 0.02082623355090618, 0.020402831956744194, 0.012644713744521141, -0.02159247361123562, -0.024949967861175537, 0.003094792366027832},
			 {-0.03546903654932976, 0.031823206692934036, 0.06618111580610275, 0.06165134534239769, 0.020435869693756104, 0.01793338544666767, -0.02501962147653103, 0.015191720798611641, -0.022802580147981644, 0.022322367876768112, 0.0054226950742304325, 0.03413190320134163, 0.029810752719640732, 0.02582971751689911, 0.0700690969824791, 0.05003446340560913, -0.00020102268899790943, 0.02167556807398796, -0.02193855680525303, 0.0024836610537022352, -0.03605460375547409, 0.0312268678098917, 0.07309922575950623, -0.014699839055538177, -0.014461844228208065, -0.034930504858493805, 0.06983276456594467, 0.04125167801976204, 0.05047361180186272, -0.011521181091666222, -0.03906078264117241, 0.0557275116443634, 0.04637210816144943, 0.003804815001785755, 0.05736454948782921, 0.01588013395667076, 0.01982290670275688, 0.04517621546983719, 0.085094153881073, 0.0639541745185852, 0.003909428138285875, 0.048511385917663574, -0.01898942142724991, 0.00016069132834672928, 0.04357774928212166, 0.03164418786764145, 0.033949632197618484, -0.02229241095483303, 0.010441280901432037, 0.007253766525536776, 0.023793639615178108, 0.013348097912967205, -0.007241337560117245, 0.05661003291606903, 0.07034143060445786, 0.09909577667713165, 0.014106477610766888, -0.007832666859030724, 0.0399949885904789, 0.05910910665988922, -0.02093617059290409, -0.02663593366742134, -0.02582407370209694, -0.008488677442073822},
			 {-0.00020106665033381432, 0.03157247230410576, -0.004582338500767946, -0.012103765271604061, 0.047754254192113876, -0.013531680218875408, 0.028911922127008438, 0.03071674145758152, 0.026348721235990524, 0.030155088752508163, 0.04367880895733833, -0.018555738031864166, 0.02585698291659355, -0.036518510431051254, -0.0011919050011783838, 0.03848320618271828, 0.056258708238601685, 0.012358609586954117, 0.03326292708516121, -0.024966325610876083, -0.0020028536673635244, 0.05737238749861717, 0.04069676622748375, 0.03311241790652275, -0.026089375838637352, 0.06515257805585861, 0.037427593022584915, 0.05897584185004234, 0.04631142318248749, 0.06620507687330246, -0.01709134504199028, 0.02939188852906227, -0.03590211272239685, 0.024308761581778526, -0.004018873441964388, -0.019469354301691055, -0.020582688972353935, 0.00018400172120891511, 0.06299131363630295, 0.061163708567619324, 0.06607276946306229, 0.0428062304854393, 0.009653630666434765, 0.008269156329333782, -0.024453816935420036, -0.042778052389621735, 0.004269532393664122, 0.01176527887582779, 0.015878593549132347, -0.022224152460694313, 0.024131370708346367, 0.02342563308775425, -0.022131426259875298, 0.06060188263654709, -0.0029193107038736343, 0.040747787803411484, 0.01989687606692314, -0.04137016832828522, 0.027164172381162643, 0.013651806861162186, -0.01990564726293087, 0.01362624391913414, -0.011026950553059578, 0.019870031625032425},
			 {-0.04335329681634903, -0.00148712657392025, 0.024133998900651932, 0.061386629939079285, 0.04148547351360321, -0.047962676733732224, -0.02217045985162258, 0.02324644848704338, 0.04856686666607857, 0.04435540363192558, 0.017979830503463745, 0.02518528141081333, -0.005329489707946777, -0.014211759902536869, 0.01785549707710743, -0.007972252555191517, 0.04762167111039162, -0.005392611026763916, 0.005592942237854004, 0.06515517085790634, -0.01895247958600521, 0.024587571620941162, 0.02936113439500332, 0.004517637193202972, 0.00854890700429678, -0.017705809324979782, 0.00943560991436243, -0.004348331596702337, 0.02399282529950142, 0.024910764768719673, -0.04325329139828682, 0.03323335573077202, -0.04731712490320206, 0.05237901583313942, -0.054538000375032425, 0.05038110911846161, 0.015225294977426529, -0.047938570380210876, 0.0301388930529356, -0.016642924398183823, 0.027681777253746986, 0.010685318149626255, 0.025211527943611145, -0.043188635259866714, 0.0012021486181765795, -0.04330626130104065, 0.035329628735780716, 0.0032535307109355927, 0.0048279534094035625, 0.01976969465613365, 0.026456493884325027, -0.025730034336447716, -0.04313996434211731, 0.026210084557533264, 0.03196979686617851, 0.012668507173657417, -0.012627700343728065, 0.03355977311730385, -0.025960609316825867, 0.04332313314080238, 0.020290354266762733, 0.018014181405305862, 0.0020704451017081738, -0.03315465524792671},
			 {-0.013873886317014694, -0.026783881708979607, -0.0822945088148117, 0.010952668264508247, -0.025642458349466324, -0.010134763084352016, 0.0474860705435276, 0.02457820251584053, -0.018583286553621292, 0.03455314412713051, 0.023056892678141594, -0.014364713802933693, -0.04758035019040108, -0.06719207763671875, -0.04686454311013222, -0.010860472917556763, -0.031670212745666504, -0.0032619121484458447, 0.03430168703198433, 0.10771201550960541, 0.07011687755584717, -0.04645098000764847, 0.02151643857359886, 0.022962484508752823, 0.0578666590154171, 0.016844654455780983, -0.09428206831216812, -0.0966416746377945, 0.03714202716946602, -0.0389716774225235, 0.023980382829904556, 0.023530276492238045, 0.004176712594926357, 0.0041935862973332405, -0.08120093494653702, -0.06139788404107094, 0.03429131582379341, -0.06688863784074783, 0.08958494663238525, 0.004523703828454018, -0.017090562731027603, -0.03146873787045479, 0.03726871311664581, 0.02629830129444599, 0.06681284308433533, 0.0084858862683177, -0.02595776692032814, -0.019278526306152344, -0.022095737978816032, 0.04381538927555084, 0.05313928425312042, -0.004264529794454575, -0.01149450708180666, 0.07107928395271301, 0.07691553980112076, -0.026957932859659195, 0.05200084671378136, 0.013486573472619057, -0.04170475900173187, 0.017950231209397316, 0.04403549060225487, -0.017294704914093018, 0.02893533930182457, 0.01297784224152565},
			 {0.05047465115785599, -0.09139948338270187, -0.10890857875347137, -0.03935661166906357, -0.001707483665086329, -0.03434856981039047, 0.021841075271368027, 0.010512142442166805, 0.022108163684606552, -0.04551888629794121, -0.05560572072863579, -0.018569763749837875, -0.037458956241607666, -0.08503986895084381, -0.0728759616613388, -0.059517282992601395, -0.03210112825036049, -0.00846247561275959, -0.04537926986813545, 0.08654126524925232, 0.02257475070655346, -0.07300014048814774, -0.05421840026974678, -0.009438931941986084, -0.013379605486989021, 0.09645009785890579, -0.11478690057992935, -0.12221960723400116, -0.0029736312571913004, -0.015113201923668385, -0.030340684577822685, -0.010797495022416115, -0.05801723524928093, 0.057749610394239426, -0.03289920836687088, 0.016018064692616463, -0.04785639047622681, -0.07313361763954163, 0.07978721708059311, -0.03245926275849342, -0.019113682210445404, -0.03479025512933731, -0.04190455749630928, -0.01061820425093174, 0.057941898703575134, 0.03577688708901405, -0.06337043642997742, 0.03522184118628502, -0.015278302133083344, 0.02442864328622818, 0.00837161485105753, -0.07252072542905807, 0.009710690937936306, 0.08771808445453644, 0.13768990337848663, -0.03545912727713585, -0.015119723044335842, -0.009710606187582016, 0.045458901673555374, -0.043835584074258804, 0.007461129687726498, 0.015971127897500992, 0.12262997776269913, -0.04132319614291191},
			 {0.019086414948105812, -0.10234437137842178, -0.13180163502693176, -0.03349437192082405, -0.07560931146144867, -0.11940602958202362, -0.005027424544095993, 0.038498252630233765, -0.03670994192361832, -0.0327211394906044, -0.035612065345048904, 0.01829134300351143, -0.028822029009461403, -0.038296181708574295, -0.08681734651327133, -0.042775727808475494, -0.07730179280042648, -0.02416234277188778, 0.010021653026342392, 0.06866087764501572, 0.10432609170675278, -0.08361416310071945, -0.03513498231768608, 0.03264602646231651, 0.06317094713449478, 0.043336253613233566, -0.13135959208011627, -0.08002118021249771, 0.025795701891183853, 0.003004122758284211, 0.041640136390924454, -0.053982410579919815, -0.09327318519353867, 0.07917805761098862, -0.051549408584833145, -0.060064222663640976, 0.03394215181469917, -0.1308286190032959, 0.013715808279812336, -0.021411603316664696, -0.035928767174482346, -0.09893015772104263, 0.016971975564956665, -0.043421223759651184, 0.11408817023038864, 0.03698599711060524, -0.10275804251432419, 0.000647328794002533, 0.0018996199360117316, -0.05352301150560379, -0.014001895673573017, -0.08650239557027817, -0.017191147431731224, 0.06585849076509476, 0.15344710648059845, -0.012640498578548431, 0.04222095385193825, 0.01034605223685503, 0.01073114387691021, -0.08071627467870712, 0.09369166195392609, -0.04442248493432999, 0.08495849370956421, 0.02919894829392433},
