#include "ap_int.h"
#include "ap_fixed.h"
#include <math.h>

#define INPUT_ROW 39
#define HIDDEN_ROW1 16
#define HIDDEN_ROW2 16
#define OUTPUT_ROW 8

void mlp(float inputData[1][INPUT_ROW], float result[1][OUTPUT_ROW]) {
#pragma HLS INTERFACE ap_ctrl_hs port=return
#pragma HLS INTERFACE s_axilite port=inputData
#pragma HLS INTERFACE s_axilite port=result
#pragma HLS INTERFACE s_axilite port=return

	ap_fixed<32,16> convertIn[1][INPUT_ROW];
	ap_fixed<32,16> convertOut[1][OUTPUT_ROW];

	for (int i = 0; i < INPUT_ROW; i++) {
		convertIn[0][i] = (ap_fixed<32,16>)inputData[0][i];
	}


	ap_fixed<32,16> weightsHidden1[INPUT_ROW][HIDDEN_ROW1] = {{0.40366700291633606, -0.19359463453292847, 0.4240604043006897, 0.8572570085525513, -0.0882466658949852, -0.21338000893592834, -0.2602255940437317, -0.1508796364068985, 0.8415393829345703, 0.17486687004566193, 0.7024612426757812, 0.6893289089202881, -0.21976467967033386, 0.6705319881439209, -0.28283408284187317, -0.27453169226646423},
			 {0.028516892343759537, 1.0588603019714355, 1.6109223365783691, -0.24316345155239105, 0.1482856571674347, 0.034680381417274475, -0.2372245341539383, 1.3188865184783936, -0.2722923457622528, -0.9444343447685242, -0.19696421921253204, -0.05978590250015259, 0.5971614718437195, -0.3260903060436249, -0.8306570053100586, 0.7441296577453613},
			 {0.5388732552528381, 1.2907373905181885, 1.9517669677734375, -1.1172724962234497, 0.837334156036377, 0.5573389530181885, 0.43855971097946167, 1.7796021699905396, -0.724693238735199, -1.1026006937026978, -0.6444371938705444, -0.6422888040542603, 0.8462794423103333, -0.9750391244888306, -1.3681451082229614, 0.9154070615768433},
			 {0.08887660503387451, 0.06552763283252716, -0.23138850927352905, -0.1505882740020752, -0.2171102613210678, -0.16542644798755646, -0.1752983182668686, -0.24068106710910797, -0.09635397791862488, 0.1601691097021103, -0.04754621535539627, -0.18426071107387543, -0.17270998656749725, -0.051789674907922745, 0.30047833919525146, -0.24778489768505096},
			 {-0.18086011707782745, 0.10013958066701889, 0.02705886773765087, 0.20619195699691772, -0.16827963292598724, 0.04377743974328041, -0.23729659616947174, -0.046196527779102325, 0.003042507916688919, 0.11711205542087555, 0.05087437480688095, 0.020264452323317528, -0.1207939013838768, 0.06936877965927124, 0.2193099409341812, -0.44375374913215637},
			 {-0.07295942306518555, 0.8077573180198669, 1.2137240171432495, 0.4604279100894928, -0.21557047963142395, -0.22979700565338135, -0.4457460939884186, 1.002935528755188, -0.03249914199113846, -0.8374741673469543, 0.18893544375896454, 0.27928870916366577, 0.32030922174453735, 0.27248650789260864, -0.08491116017103195, 0.472057968378067},
			 {0.7448311448097229, -0.38515567779541016, 0.12892307341098785, 0.36143729090690613, 0.5580318570137024, 0.3813604712486267, 0.5185243487358093, -0.3706803321838379, 0.5478479862213135, 0.6168521046638489, 0.719456672668457, 0.018061595037579536, -0.197557270526886, 0.4492432475090027, -0.22597409784793854, -0.19352076947689056},
			 {-0.213288813829422, 0.13386817276477814, -0.7048929333686829, -0.13208310306072235, -0.5684002637863159, -0.8461658954620361, -0.027440691366791725, 0.45731374621391296, 1.3488073348999023, -0.3152534067630768, -0.6162135004997253, 0.9965560436248779, 0.8219910860061646, -0.47695744037628174, 0.39172953367233276, 0.3828038275241852},
			 {-0.2375340312719345, -0.40755125880241394, -1.5383408069610596, -0.3843575119972229, -0.8005567789077759, -1.2305001020431519, 0.23060007393360138, 0.2560634911060333, 1.8540213108062744, -0.2830773591995239, -0.7460304498672485, 1.2957632541656494, 0.8338467478752136, -0.7252336740493774, 0.7056027054786682, 0.08237718790769577},
			 {0.011272172443568707, -0.2733363211154938, -0.30500325560569763, -0.018933674320578575, -0.13184498250484467, -0.09804093837738037, -0.07510648667812347, 0.18741481006145477, 0.04086071252822876, 0.10121818631887436, 0.2157345861196518, -0.13635821640491486, -0.30231380462646484, 0.15371745824813843, 0.2523443400859833, -0.13838395476341248},
			 {0.2064986675977707, -0.27262961864471436, -0.4467778503894806, 0.6204478740692139, -0.21102763712406158, 0.06378863006830215, 0.14170432090759277, -0.22852936387062073, 0.40901902318000793, 0.2903082072734833, 0.4120241403579712, 0.3290085792541504, -0.16644646227359772, 0.47356998920440674, 0.889437198638916, -0.2104002833366394},
			 {0.22774465382099152, -0.32656824588775635, -0.9102764129638672, 0.13778387010097504, -0.367854505777359, -0.718181848526001, 0.1009906604886055, 0.06688407808542252, 1.3582966327667236, 0.0776185616850853, -0.06563708931207657, 0.8133857846260071, 0.3912826478481293, -0.06730230897665024, 0.5505239367485046, -0.1753832995891571},
			 {-1.3679633140563965, 1.271949291229248, 0.16511179506778717, -0.47900688648223877, -1.0732349157333374, -0.9821493625640869, -0.9291490316390991, 0.9078736901283264, 0.5966130495071411, -1.0329922437667847, -1.297288179397583, 0.756628155708313, 1.4693694114685059, -0.712009608745575, 0.2176475077867508, 1.3785732984542847},
			 {0.00962768029421568, 0.5025354623794556, -0.13107962906360626, 0.11939959228038788, 0.7326238751411438, 0.8063902258872986, 0.7977491617202759, -0.19725804030895233, -0.6280933618545532, 0.22688338160514832, -0.06377407908439636, -0.880237340927124, 0.6586915254592896, 0.400089830160141, 0.8545763492584229, 0.7694386839866638},
			 {-0.41706010699272156, 0.515509307384491, -0.686273992061615, 0.2506729066371918, 0.8228849172592163, 1.190462350845337, 0.9394794702529907, -0.5509548783302307, -1.2026537656784058, 0.2482040375471115, -0.20399363338947296, -1.3232539892196655, 0.8044278621673584, 0.7520034313201904, 1.2818853855133057, 0.9935157895088196},
			 {-0.08202385902404785, -0.3769146800041199, -0.12240791320800781, -0.43881914019584656, -0.14718039333820343, -0.11219052225351334, -0.19121547043323517, 0.017364289611577988, -0.06353815644979477, -0.0419425293803215, 0.015687044709920883, 0.2686026096343994, -0.38388684391975403, -0.19666065275669098, -0.3634885549545288, -0.38834014534950256},
			 {-0.12210126221179962, 0.3643602430820465, 0.679365873336792, 0.2884237468242645, 0.10831530392169952, 0.36127158999443054, -0.3263775408267975, -0.45987623929977417, -0.5208490490913391, 0.13293294608592987, 0.23829147219657898, 0.14288868010044098, 0.000490969221573323, 0.38080674409866333, -0.5895859003067017, 0.6067281365394592},
			 {-0.014894313178956509, 0.3284350037574768, -0.20517092943191528, 0.06660328060388565, 0.3276771306991577, 0.3230114281177521, 0.48176854848861694, 0.034636955708265305, -0.07081048935651779, 0.06908424198627472, -0.1197194904088974, -0.4593912363052368, 0.684526801109314, 0.244358628988266, 0.785367488861084, 0.5925933122634888},
			 {0.24314749240875244, 0.10491945594549179, 0.12747806310653687, 0.19583582878112793, 0.1960574984550476, 0.1167154312133789, 0.16518472135066986, -0.0589008666574955, 0.39758458733558655, 0.13735894858837128, 0.2390429824590683, 0.19161756336688995, 0.09621141105890274, 0.2836528420448303, 0.012725790962576866, 0.04731481522321701},
			 {0.23677921295166016, -0.22272828221321106, -0.42879000306129456, 0.36880168318748474, 0.4780934154987335, 0.5058439373970032, 0.493971586227417, -0.6214268803596497, 0.07357494533061981, 0.385905921459198, 0.39937472343444824, -0.06502717733383179, -0.20491118729114532, 0.6373425126075745, 0.7009442448616028, -0.24385716021060944},
			 {0.09969834983348846, -0.4004112780094147, -0.7994033694267273, 0.5712387561798096, 0.5732797980308533, 0.8271320462226868, 0.6516500115394592, -1.0090972185134888, -0.30468985438346863, 0.5216711163520813, 0.4389111399650574, -0.36632704734802246, -0.2838691473007202, 0.8924970626831055, 1.051393747329712, -0.284786194562912},
			 {-0.09971889853477478, -0.08565334975719452, 0.19108009338378906, -0.11381813883781433, -0.10741449147462845, -0.49437594413757324, -0.32854026556015015, 0.37571480870246887, -0.26255902647972107, -0.6252495646476746, -0.12906643748283386, -0.7024529576301575, -0.12264877557754517, -0.16967931389808655, -0.16708901524543762, -0.14617085456848145},
			 {0.5537459254264832, 0.3379727005958557, 0.8924071192741394, 0.8762333989143372, 0.160672128200531, 0.1510583758354187, -0.2054564654827118, 0.38530105352401733, 0.29178836941719055, -0.17310857772827148, 0.5069999098777771, 0.5703508257865906, -0.19915354251861572, 0.48797279596328735, -0.09308101236820221, -0.006553232204169035},
			 {0.2189495861530304, 0.0639135017991066, 0.06112218275666237, 0.24609287083148956, 0.24266470968723297, 0.22053645551204681, 0.259213387966156, -0.09928297251462936, 0.28841087222099304, 0.21217316389083862, 0.2576008141040802, 0.02599833905696869, 0.20078350603580475, 0.2890094816684723, 0.32192787528038025, 0.02876875177025795},
			 {0.4169096350669861, 0.1519174575805664, 0.4778532385826111, -0.0313892625272274, 0.29326626658439636, 0.1450919508934021, 0.18410390615463257, 0.18239803612232208, 0.351730614900589, 0.2526702284812927, 0.21203172206878662, 0.05363265052437782, 0.19876399636268616, -0.012909811921417713, -0.4797966778278351, 0.07416273653507233},
			 {-0.300510972738266, 0.7086946368217468, 1.0075740814208984, 0.7869989275932312, -0.21267636120319366, -0.01916475035250187, -0.5838526487350464, 0.4837378263473511, -0.07974399626255035, -0.6810776591300964, 0.34752145409584045, 0.27914729714393616, 0.07877945899963379, 0.775177538394928, 0.34597325325012207, 0.1939467042684555},
			 {-0.3386877179145813, 0.7391611933708191, 1.4833812713623047, 1.1095879077911377, -0.17422817647457123, 0.12076470255851746, -0.6281654834747314, 0.5236536264419556, -0.4776100814342499, -0.9404032826423645, 0.6085100173950195, 0.12359445542097092, -0.23348385095596313, 1.062402367591858, 0.6079555153846741, 0.0568515844643116},
			 {-0.12071474641561508, -0.22204366326332092, -0.059291940182447433, 0.061268363147974014, 0.05678393319249153, -0.06059175729751587, -0.028701137751340866, -0.03967928886413574, -0.050571639090776443, -0.019459610804915428, 0.006873559672385454, -0.4216915965080261, -0.05819704756140709, -0.009639516472816467, 0.040290240198373795, 0.15911923348903656},
			 {-0.20734913647174835, -0.04279183968901634, -0.2962459623813629, -0.19700497388839722, -0.19741076231002808, -0.16432075202465057, -0.2627107799053192, -0.18596132099628448, -0.27835145592689514, -0.06326967477798462, 0.03332613781094551, 0.011755366809666157, -0.18086613714694977, -0.09912799298763275, 0.10179463028907776, -0.48586761951446533},
			 {-0.11392326653003693, 0.3788459599018097, 0.5661036968231201, 0.6565046906471252, -0.08402984589338303, -0.1041359156370163, -0.2817986309528351, 0.2549445629119873, 0.10782846808433533, -0.4147060811519623, 0.3833933174610138, 0.2757513225078583, 0.07875940203666687, 0.5879601240158081, 0.2887289524078369, 0.11416217684745789},
			 {0.20206283032894135, 0.2879105806350708, 0.40483540296554565, 0.12643416225910187, 0.2637996971607208, 0.17671938240528107, 0.1208902969956398, 0.049199286848306656, 0.24350771307945251, 0.1344148963689804, 0.1681656390428543, 0.002838588785380125, 0.1741173267364502, 0.15653562545776367, -0.05654004216194153, 0.16038019955158234},
			 {0.5032774806022644, 0.13503016531467438, -1.8179458493250422e-05, -0.540168285369873, 0.5548946261405945, 0.3225913345813751, 0.694851815700531, 0.477179616689682, 0.036032140254974365, 0.08771046251058578, -0.07115088403224945, -0.46308591961860657, 0.39219021797180176, -0.40795764327049255, -0.01754932664334774, 0.1486075073480606},
			 {0.811131477355957, -0.038387324661016464, -0.33950692415237427, -0.8480657935142517, 0.6734046936035156, 0.4087781310081482, 1.143712043762207, 0.7627153396606445, 0.037831105291843414, 0.2056867480278015, -0.33254149556159973, -0.6782091856002808, 0.4020308554172516, -0.8112126588821411, -0.11085443198680878, 0.1116679385304451},
			 {-0.005816848017275333, -0.01613624580204487, 0.1391507238149643, -0.15179100632667542, 0.12151311337947845, 0.033482473343610764, -0.06544532626867294, 0.01296789851039648, -0.11265569925308228, -0.08077920973300934, -0.051729995757341385, -0.11058012396097183, -0.06294721364974976, -0.0372195690870285, 0.1658904254436493, -0.1159282848238945},
			 {-0.08484373241662979, 0.09945175051689148, -0.010649283416569233, 0.18140554428100586, 0.02297932468354702, -0.01638941280543804, -0.25567081570625305, -0.19669601321220398, 0.14827057719230652, 0.2973622679710388, 0.051654886454343796, 0.24467255175113678, 0.29914596676826477, 0.09813543409109116, -0.09615927934646606, 0.44409632682800293},
			 {0.3502280116081238, 0.09455998986959457, -0.013913960196077824, -0.041129451245069504, 0.38093408942222595, 0.2395666241645813, 0.5254457592964172, 0.1707131713628769, 0.03502437472343445, 0.01919655129313469, 0.10493739694356918, -0.3133963644504547, 0.18598318099975586, 0.05161501467227936, 0.3281154930591583, 0.08269164711236954},
			 {-0.9654017090797424, 0.3444645404815674, 0.3136062026023865, 1.5082142353057861, -1.3809679746627808, -1.3504890203475952, -1.3889371156692505, 0.08608430624008179, 1.434528112411499, -0.7257272601127625, 0.23265013098716736, 1.6125402450561523, 0.14060162007808685, 1.0658822059631348, 0.2471533566713333, 0.35661792755126953},
			 {1.6931322813034058, -1.3367228507995605, -0.6206173896789551, -1.0494340658187866, 0.9278696179389954, 0.37565526366233826, 1.3781901597976685, 0.3417131006717682, 0.8344561457633972, 1.0054092407226562, 0.5795372724533081, -0.1631392389535904, -0.8811205625534058, -1.2765485048294067, -0.9464487433433533, -1.3530397415161133},
			 {-1.0315451622009277, 1.2670856714248657, -0.4083835780620575, -1.1257871389389038, 0.7320272326469421, 1.2957290410995483, 0.8937524557113647, 0.17601677775382996, -2.118422746658325, -0.2554979622364044, -1.3028264045715332, -1.549701452255249, 1.522715449333191, -0.23031748831272125, 1.2532987594604492, 1.875227451324463}};

	ap_fixed<32,16> weightsHidden2[HIDDEN_ROW1][HIDDEN_ROW2] = {{0.7880731225013733, 0.2044108510017395, -0.02280317433178425, 0.28671547770500183, 0.26012539863586426, 0.6467882990837097, -0.6559272408485413, -0.6216360330581665, -0.7216975092887878, -0.2966141402721405, -0.8607415556907654, 0.9516456127166748, -0.005020011216402054, 0.6131637692451477, -0.4417036175727844, 0.02332555130124092},
			 {-0.40592241287231445, 0.486832857131958, -0.019763417541980743, 0.49255019426345825, 0.060205891728401184, -0.6626088619232178, 0.5393645763397217, 0.49315255880355835, 0.16363178193569183, 0.5357620120048523, 0.6727343797683716, -0.5693233013153076, 0.0024835930671542883, -0.04127207398414612, 0.2938999533653259, 0.31495705246925354},
			 {0.051284484565258026, 0.2877329885959625, -0.026146376505494118, 0.4325615167617798, 0.047396451234817505, -0.7695119976997375, -0.019069142639636993, 0.13086064159870148, -0.8230797648429871, 1.1066875457763672, 0.3958580195903778, -0.38458865880966187, -0.06368520110845566, 0.9239240884780884, 0.4292472004890442, 0.27718988060951233},
			 {0.6963666677474976, -0.5530539155006409, 0.017590247094631195, -0.5208331942558289, -0.3399602472782135, 0.28828856348991394, 0.3657367527484894, 0.44436967372894287, 0.058362193405628204, 0.6500893235206604, 0.5566374063491821, 0.5111727118492126, 0.02813907340168953, 0.6928825974464417, -0.20578791201114655, -0.05074344575405121},
			 {0.28527718782424927, 0.6614568829536438, 0.009868795052170753, 0.6852055191993713, -0.30910202860832214, 0.5379819869995117, -0.5231531858444214, -0.5608715415000916, 0.0854598805308342, -0.28274500370025635, -0.5533972382545471, 0.5526169538497925, -0.007454812526702881, 0.42166030406951904, 0.00190958462189883, -0.43792524933815},
			 {0.1164633184671402, 0.8422191739082336, -0.0024765601847320795, 0.8780243396759033, -0.6243506669998169, 0.41989588737487793, -0.474480539560318, -0.6229661107063293, 0.31082406640052795, -0.08529217541217804, -0.2709551751613617, 0.4005517363548279, -0.039464741945266724, 0.5891772508621216, -0.12639369070529938, -0.6742473244667053},
			 {0.26454541087150574, 0.672430694103241, -0.05055505782365799, 0.679975688457489, -0.031118055805563927, 0.7544794082641602, -0.3779475688934326, -0.48150309920310974, 0.35608163475990295, -0.8805797100067139, -0.7413764595985413, 0.7743785381317139, -0.010171893984079361, 0.04873274639248848, -0.37518423795700073, -0.2975614666938782},
			 {-0.2959005534648895, 0.5496493577957153, -0.014440778642892838, 0.513187050819397, 0.47325488924980164, -0.9369617700576782, 0.6508502960205078, 0.7202721238136292, -0.860153317451477, 0.18425291776657104, 0.20944258570671082, -0.2267305999994278, 0.003541843267157674, -0.22998999059200287, -0.08735328167676926, 0.4648740291595459},
			 {0.6479436159133911, -0.5592226386070251, 0.0022963578812777996, -0.5434717535972595, 0.9191049933433533, 0.39509931206703186, 0.3556618392467499, 0.3117333948612213, -0.04514908045530319, -0.13973818719387054, 0.0823708102107048, 0.556498646736145, -0.05787528678774834, -0.3573921024799347, 0.12373565882444382, 0.7289280891418457},
			 {0.6487016081809998, 0.3314143419265747, 0.025850342586636543, 0.48156851530075073, -0.06707146018743515, 1.1416912078857422, -0.9933609962463379, -0.9081109166145325, 0.08407258987426758, -0.335143119096756, -1.0294123888015747, 1.0089901685714722, -0.00940597802400589, 0.7626284956932068, 0.08899804204702377, -0.4753342270851135},
			 {0.8982762694358826, -0.44911330938339233, 0.008931891992688179, -0.33304616808891296, -0.4288879632949829, 0.5211431384086609, -0.41600537300109863, -0.4708351790904999, -0.4598790407180786, 0.30138665437698364, -0.10355952382087708, 0.8183956146240234, -0.01934351958334446, 1.115640640258789, -0.45503872632980347, -0.18116244673728943},
			 {0.1663297414779663, -0.6652971506118774, -0.012324517592787743, -0.6575237512588501, 0.7632649540901184, -0.048104580491781235, 0.5636441111564636, 0.7196211218833923, 0.4166691303253174, 0.6839568614959717, 0.6327126026153564, -0.1360977441072464, -0.04527940973639488, -0.10147802531719208, 0.9187978506088257, 0.7404148578643799},
			 {-0.44154271483421326, 0.4701821804046631, -0.04600214213132858, 0.4168110489845276, 0.3779657781124115, -0.13337327539920807, 0.5552194714546204, 0.5408517122268677, 0.5771340131759644, 0.011309652589261532, 0.3685266375541687, -0.11182181537151337, 0.0032934527844190598, -0.5099350214004517, 0.41701406240463257, 0.3582870364189148},
			 {0.595157265663147, -0.47678378224372864, -0.06588766723871231, -0.4319555461406708, -0.7637752294540405, 0.35651105642318726, 0.13893094658851624, 0.02176808938384056, 0.26550886034965515, 0.47543632984161377, 0.572340190410614, 0.48347923159599304, 0.006944478955119848, 0.8187232613563538, -0.3505561053752899, -0.3898700475692749},
			 {-0.176699697971344, 0.015903154388070107, 0.0004321697633713484, -0.29092469811439514, -0.7068436741828918, 0.17773787677288055, 0.9267277121543884, 0.604149341583252, 0.6378565430641174, -0.8461194634437561, 0.7771205306053162, 0.19684281945228577, -0.006714782677590847, -0.9389399886131287, -1.0817328691482544, -0.5748962163925171},
			 {-0.7222469449043274, 0.4228303134441376, -0.003210751572623849, 0.4225587844848633, 0.08765607327222824, -0.10173618048429489, 0.5831983089447021, 0.6872085928916931, 0.609315812587738, 0.32460811734199524, 0.2508205771446228, -0.3210347592830658, -0.051264114677906036, -0.08959216624498367, 0.8114060759544373, 0.17781563103199005}};

	ap_fixed<32,16> weightsOut[HIDDEN_ROW2][OUTPUT_ROW] =  {{0.2809378206729889, 0.24588464200496674, 0.6392289996147156, -0.3089889585971832, -0.6937830448150635, -0.6437554359436035, -0.37154722213745117, 0.2030734121799469},
			 {-0.5623892545700073, 0.4791993796825409, -0.8775903582572937, 0.24729949235916138, 0.365450382232666, -0.32821691036224365, 0.6195830702781677, -1.015334129333496},
			 {-0.03133463114500046, 0.0003425212053116411, -0.03920804709196091, -0.03873378410935402, -0.04890810698270798, -0.03545181080698967, 0.01618899405002594, 0.009442898444831371},
			 {-0.5858290791511536, 0.5670468807220459, -0.7877728939056396, 0.15764334797859192, 0.39755120873451233, -0.511019229888916, 0.5664174556732178, -0.7831496000289917},
			 {-1.3151497840881348, 0.3868381679058075, -0.20884764194488525, -0.9074407815933228, -0.897528886795044, 0.6110005378723145, 0.7220191955566406, 0.4497235417366028},
			 {-0.1713438779115677, 0.23060747981071472, 0.6673174500465393, 0.37238380312919617, -0.19354236125946045, -0.9853823184967041, -0.24253685772418976, -0.20632782578468323},
			 {0.29594388604164124, -1.319221019744873, -0.7255526185035706, 0.38567638397216797, -0.2643876373767853, 0.6892531514167786, 0.07739009708166122, -0.11357948929071426},
			 {0.1841304749250412, -1.6245841979980469, -0.7638619542121887, 0.25269967317581177, -0.13641856610774994, 0.6323633790016174, 0.14675402641296387, 0.07537950575351715},
			 {-0.721705436706543, -0.24386870861053467, 0.21231114864349365, 0.7843366861343384, 0.31069672107696533, 0.4307994544506073, -1.0518733263015747, -0.17147929966449738},
			 {0.32490280270576477, -0.16372108459472656, -1.163297176361084, -1.124132752418518, 0.4276142418384552, -0.020085984840989113, -0.2987552285194397, 0.6540998816490173},
			 {0.6315819025039673, -0.885932445526123, -0.9907643795013428, -0.043918427079916, -0.046423736959695816, 0.738996684551239, -0.48044636845588684, 0.010631533339619637},
			 {0.06349838525056839, 0.18388229608535767, 0.6368171572685242, 0.2185146063566208, -0.47806626558303833, -0.8940632939338684, -0.021601498126983643, -0.09482521563768387},
			 {-0.016836155205965042, 0.0011728843674063683, -0.03082381933927536, 0.030099045485258102, -0.03728584200143814, -0.020532632246613503, 0.002161720534786582, 0.00855645164847374},
			 {0.41609424352645874, 0.454894095659256, 0.2232954055070877, -0.6310786604881287, 0.4889525771141052, -1.3261961936950684, -0.6272215247154236, -0.018524058163166046},
			 {-0.9796361327171326, -0.4239048659801483, -1.1967467069625854, -0.32456883788108826, 0.5896586179733276, 0.3241315186023712, -0.10215979069471359, 0.6347771286964417},
			 {-0.5492175221443176, -0.6354530453681946, -0.07694292068481445, -1.074939250946045, -0.37745463848114014, 0.5843052864074707, 0.4951622486114502, 0.4236249625682831}};

	ap_fixed<32,16> hidden1[1][HIDDEN_ROW1] = {0};

	ap_fixed<32,16> biasHidden1[HIDDEN_ROW1] = {0.2668610215187073, 0.16296182572841644, 0.2633031904697418, 0.1100156232714653, 0.2172418236732483, 0.12597858905792236, 0.17318888008594513, 0.09646198898553848, 0.34811851382255554, 0.16045840084552765, 0.182430699467659, 0.10442042350769043, 0.2217274308204651, 0.13930000364780426, -0.07464137673377991, 0.1353215128183365};

	ap_fixed<32,16> hidden2[1][HIDDEN_ROW2] = {0};

	ap_fixed<32,16> biasHidden2[HIDDEN_ROW2] =  {0.3499746024608612, 0.2075026035308838, -0.004631609655916691, 0.2241365611553192, 0.3355885148048401, 0.05253417044878006, -0.012003056704998016, -0.1155657023191452, -0.09647339582443237, 0.055914685130119324, 0.1078648790717125, 0.10562170296907425, -0.04564759507775307, 0.03487043082714081, 0.04735860973596573, 0.3265308737754822};

	ap_fixed<32,16> biasOut[OUTPUT_ROW] =  {-0.11351922154426575, 0.5986508727073669, 0.0016290859784930944, -0.14954032003879547, -0.33165690302848816, 0.549256443977356, -0.1286328136920929, -0.43570879101753235};

	// Hidden layer 1
	for(int i = 0; i < 1; i++) {
	    // Iterate over the columns of the B matrix

	    for(int j = 0; j < HIDDEN_ROW1; j++) {
//			#pragma HLS pipeline
	    	// Do the inner product of a row of A and col of B
	    	hidden1[i][j] = 0;
	    	for(int k = 0; k < INPUT_ROW; k++) {
	    		hidden1[i][j] += convertIn[i][k] * weightsHidden1[k][j];
	    	}
	    }
	}

	// Bias, ReLU
	for(int i = 0; i < 1; i++) {
		for(int j = 0; j < HIDDEN_ROW1; j++) {
//			#pragma HLS pipeline
			//hidden[i][j] /= 256;
			hidden1[i][j] += biasHidden1[j];
			if (hidden1[i][j] < 0) {
				hidden1[i][j] = 0;
			}
		}
	}

	// Hidden layer 2
	for(int i = 0; i < 1; i++) {
	    // Iterate over the columns of the B matrix

	    for(int j = 0; j < HIDDEN_ROW2; j++) {
	    	// Do the inner product of a row of A and col of B
//			#pragma HLS pipeline
	    	hidden2[i][j] = 0;
	    	for(int k = 0; k < HIDDEN_ROW1; k++) {
	    		hidden2[i][j] += hidden1[i][k] * weightsHidden2[k][j];
	    	}
	    }
	}

	// Bias, ReLU
	for(int i = 0; i < 1; i++) {
		for(int j = 0; j < HIDDEN_ROW2; j++) {
//			#pragma HLS pipeline
			//hidden[i][j] /= 256;
			hidden2[i][j] += biasHidden2[j];
			if (hidden2[i][j] < 0) {
				hidden2[i][j] = 0;
			}
		}
	}

	// Output layer
	for(int i = 0; i < 1; i++) {
	    // Iterate over the columns of the B matrix

	    for(int j = 0; j < OUTPUT_ROW; j++) {
	    	// Do the inner product of a row of A and col of B
//			#pragma HLS pipeline
	    	convertOut[i][j] = 0;
	    	for(int k = 0; k < HIDDEN_ROW2; k++) {
	    		convertOut[i][j] += hidden2[i][k] * weightsOut[k][j];
	    	}
	    }
	}

	// Bias
	for(int i = 0; i < 1; i++) {
		for(int j = 0; j < OUTPUT_ROW; j++) {
//			#pragma HLS pipeline
			//result[i][j] /= 256;
			convertOut[i][j] += biasOut[j];

		}
	}

	/*
	// Softmax layer
	double m = -9999, sum = 0.0, constant;
	for (ap_uint<8> i = 0; i < OUTPUT_ROW; ++i) {
		if (m < (float)convertOut[0][i]) {
			m = (float)convertOut[0][i];
		}
	}
	for (ap_uint<8> i = 0; i < OUTPUT_ROW; ++i) {
		sum += exp((float)convertOut[0][i] - m);
	}
	constant = m + log(sum);
	for (ap_uint<8> i = 0; i < OUTPUT_ROW; ++i) {
		convertOut[0][i] = (ap_fixed<16,8>)exp((float)convertOut[0][i] - constant);
	}
	*/

	for (int i = 0; i < OUTPUT_ROW; i++) {
		result[0][i] = (float)convertOut[0][i];
	}

}
